<?xml version="1.0"?>
<opencv_storage>
<my_nn type_id="opencv-ml-ann-mlp">
  <layer_sizes type_id="opencv-matrix">
    <rows>1</rows>
    <cols>3</cols>
    <dt>i</dt>
    <data>
      140 40 65</data></layer_sizes>
  <activation_function>SIGMOID_SYM</activation_function>
  <f_param1>1.</f_param1>
  <f_param2>1.</f_param2>
  <min_val>-9.4999999999999996e-01</min_val>
  <max_val>9.4999999999999996e-01</max_val>
  <min_val1>-9.7999999999999998e-01</min_val1>
  <max_val1>9.7999999999999998e-01</max_val1>
  <training_params>
    <train_method>RPROP</train_method>
    <dw0>1.0000000000000001e-01</dw0>
    <dw_plus>1.2000000000000000e+00</dw_plus>
    <dw_minus>5.0000000000000000e-01</dw_minus>
    <dw_min>1.1920928955078125e-07</dw_min>
    <dw_max>50.</dw_max>
    <term_criteria><epsilon>9.9999997764825821e-03</epsilon>
      <iterations>1000</iterations></term_criteria></training_params>
  <input_scale>
    1. 0. 1. 0. 1. 0. 1. 0. 1. 0. 1. -6.2500000000000000e-01 1.
    -9.3750000000000000e-01 1. -1. 1. -6.2500000000000000e-01 1.
    -3.7500000000000000e-01 1. -4.3750000000000000e-01 1.
    -6.2500000000000000e-01 1. -9.3750000000000000e-01 1.
    -8.1250000000000000e-01 1. -1.2500000000000000e-01 1. 0. 1. 0. 1. 0.
    1. 0. 1. 0. 1. -1. 1. -1. 1. -1. 1. -5.0000000000000000e-01 1.
    -3.7500000000000000e-01 1. -3.7500000000000000e-01 1.
    -3.7500000000000000e-01 1. -5.0000000000000000e-01 1. -1. 1. -1. 1.
    -1. 1. -5.0000000000000000e-01 1. -2.5000000000000000e-01 1.
    -2.5000000000000000e-01 1. -3.7500000000000000e-01 1.
    -3.7500000000000000e-01 1. -5.0000000000000000e-01 1.
    -7.5000000000000000e-01 1. -8.7500000000000000e-01 1. -1. 1. 0. 1.
    0. 1. 0. 1. 0. 1. 0. 1. 0. 1. 0. 1. 0. 1. 0. 1. 0. 1. 0. 1. 0. 1. 0.
    1. 0. 1. 0. 1. 0. 1. 0. 1. 0. 1. 0. 1. 0. 1. 0. 1. -128. 1. -128. 1.
    -128. 1. -128. 1. 0. 1. 0. 1. 0. 1. -64. 1. -64. 1. -255. 1. -255.
    1. -255. 1. -255. 1. -255. 1. -191. 1. 0. 1. 0. 1. -255. 1. -255. 1.
    -255. 1. -128. 1. 0. 1. -64. 1. -255. 1. -128. 1. 0. 1. 0. 1. 0. 1.
    -191. 1. -255. 1. -128. 1. 0. 1. 0. 1. -255. 1. -191. 1. 0. 1. 0. 1.
    -64. 1. -191. 1. -255. 1. -128. 1. 0. 1. 0. 1. -128. 1. -255. 1.
    -255. 1. -255. 1. -255. 1. -255. 1. 0. 1. 0. 1. 0. 1. 0. 1. 0. 1. 0.
    1. 0. 1. -128. 1. 0. 1. 0. 1. 0. 1. 0. 1. 0. 1. 0. 1. 0. 1. 0. 1. 0.
    1. 0. 1. 0. 1. 0. 1. 0. 1. 0. 1. 0. 1. 0. 1. 0. 1. 0. 1. 0. 1. 0. 1.
    0. 1. 0.</input_scale>
  <output_scale>
    1. 0. 1. 0. 1. 0. 1. 0. 1. 0. 1. 1. 1. 0. 1. 0. 1. 0. 1. 0. 1. 0. 1.
    0. 1. 0. 1. 0. 1. 0. 1. 0. 1. 0. 1. 0. 1. 0. 1. 0. 1. 0. 1. 0. 1. 0.
    1. 0. 1. 0. 1. 0. 1. 0. 1. 0. 1. 0. 1. 0. 1. 0. 1. 0. 1. 0. 1. 0. 1.
    0. 1. 0. 1. 0. 1. 0. 1. 0. 1. 0. 1. 0. 1. 0. 1. 0. 1. 0. 1. 0. 1. 0.
    1. 0. 1. 0. 1. 0. 1. 0. 1. 0. 1. 0. 1. 0. 1. 0. 1. 0. 1. 0. 1. 0. 1.
    0. 1. 0. 1. 0. 1. 0. 1. 0. 1. 0. 1. 0. 1. 0.</output_scale>
  <inv_output_scale>
    1. 0. 1. 0. 1. 0. 1. 0. 1. 0. 1. -1. 1. 0. 1. 0. 1. 0. 1. 0. 1. 0.
    1. 0. 1. 0. 1. 0. 1. 0. 1. 0. 1. 0. 1. 0. 1. 0. 1. 0. 1. 0. 1. 0. 1.
    0. 1. 0. 1. 0. 1. 0. 1. 0. 1. 0. 1. 0. 1. 0. 1. 0. 1. 0. 1. 0. 1. 0.
    1. 0. 1. 0. 1. 0. 1. 0. 1. 0. 1. 0. 1. 0. 1. 0. 1. 0. 1. 0. 1. 0. 1.
    0. 1. 0. 1. 0. 1. 0. 1. 0. 1. 0. 1. 0. 1. 0. 1. 0. 1. 0. 1. 0. 1. 0.
    1. 0. 1. 0. 1. 0. 1. 0. 1. 0. 1. 0. 1. 0. 1. 0.</inv_output_scale>
  <weights>
    <_>
      -2.4953086809874148e-03 6.3062534225061875e-03
      6.8193192085606426e-03 7.4396900007004160e-03
      -5.5646621269938561e-03 -4.6036254137967816e-03
      1.3102655901518802e-03 1.1077174415231619e-02
      1.2241322870225788e-02 6.9888532805692837e-03
      3.7548398551236315e-04 2.1765418280381850e-03
      1.3032722340849897e-02 5.8858837322355705e-03
      1.0533944310864216e-02 -1.9355522932022853e-03
      8.3628557386377176e-03 -4.7018166516404709e-03
      1.0320479200055192e-04 -1.1911595992791414e-02
      6.9312730798974827e-03 3.3044497713031989e-03
      -1.0528227162135384e-02 -9.7314915502441143e-03
      7.5994925032916950e-03 1.0749234218578452e-02
      3.6432192761438804e-03 -2.4187470281744174e-03
      -2.4252274684488902e-03 4.3035070657417962e-04
      5.5382261829517079e-03 2.7460019708215322e-03
      -3.7611384821631465e-03 -1.4404788059693215e-03
      -5.8062928346236040e-03 -1.0154031242607206e-03
      1.4221987634500818e-02 -8.9909040514123285e-03
      1.0812756009398974e-02 1.0677023142655951e-03
      -7.6811154622687654e-03 1.3141875699573612e-02
      1.1942750918462437e-02 -2.1314075083472442e-03
      -6.5849854952536053e-03 -9.2287265708263771e-03
      -6.0471477532338096e-03 1.3536626641896293e-02
      -8.8657074023177739e-05 9.5070371323938436e-03
      7.1481414374308799e-03 -3.6589404128318684e-03
      1.3791029854442407e-02 7.4794294674441928e-03
      5.7897421944524182e-03 -1.0114887064185741e-03
      1.0505859184371026e-02 -3.8715275998555481e-03
      -1.3148179398049065e-02 -5.0503076497966058e-03
      5.5895292855115226e-03 -3.2515826255735783e-05
      7.8622855239204453e-03 9.5137774405520559e-03
      1.4679145806616024e-03 1.1727459836527235e-03
      9.4389924336888056e-03 2.0746588054264574e-03
      1.4924122915149940e-03 1.1814891717538756e-03
      7.6166216094310842e-03 3.2690145220984792e-03
      -1.4929926612801746e-03 2.6897949630966117e-03
      5.0554758126956827e-03 2.5089161550310639e-03
      1.1238725321916795e-02 1.2821946864444645e-02
      -5.9219112383743248e-03 1.1363959007243211e-02
      -9.3581276836193338e-03 -2.3107832430498709e-03
      -4.8858846512608617e-04 1.2765259587552029e-02
      -1.0049064073798280e-02 9.9040455131369659e-04
      -5.1347778962202422e-03 1.0660202099497803e-02
      4.7321384929671162e-03 4.9863487752863185e-03
      7.4955987007953055e-03 -8.0397480914417372e-03
      3.2170469936640910e-03 -7.6406683834703542e-03
      8.8231976997656340e-03 -2.4934277853189369e-03
      8.3916319931128438e-03 -3.6707422368497237e-03
      -1.2697859382031365e-02 5.0679485794204854e-04
      4.3337900430894883e-03 -2.3133126157562794e-03
      -1.2067437970905112e-02 8.8425193725251135e-04
      5.0324756963395318e-03 8.2700283934062820e-03
      3.1290586218755516e-03 7.6987125159519902e-03
      -1.0440913646347749e-02 3.4128337129859356e-03
      2.5062263647701809e-03 1.3459307849594248e-02
      -3.9132795148598444e-03 7.0486294507373917e-03
      9.4704246419284373e-03 -1.2494289689987673e-02
      3.9320229084043304e-03 -3.0346112159211820e-03
      -3.1458696737831824e-04 1.3176088498933970e-02
      3.4862218578650046e-03 4.9144296430178027e-03
      -6.9039291444391278e-03 6.9965428349239482e-03
      6.2196944178894908e-03 -2.1281301959894207e-03
      -1.3334606619804625e-02 -9.6532452270752713e-03
      -3.3933437945531048e-03 -1.6190919357789951e-03
      4.7608576824120430e-03 3.3707825123781491e-03
      6.8486170133209767e-03 -1.2769853520545070e-02
      -2.7150727653216735e-03 1.0522291942191300e-02
      6.2669496300717187e-03 1.4132666695962106e-02
      4.1253451360657506e-03 8.4101258664352647e-03
      7.0030323946043572e-03 -1.0251326537607595e-02
      -4.3959968220783950e-03 -2.3846856131797367e-03
      -1.4703455320026729e-03 -5.4243323902324414e-03
      1.6299614737157971e-03 9.1867741023871023e-03
      -6.0925358147314633e-03 -9.0672188566426146e-03
      -3.0944929183237282e-03 -4.0207904988183440e-03
      2.9594826570470171e-04 -1.0136372106140556e-02
      -4.6844625277710989e-03 1.1073034184589579e-02
      -1.4632882205156357e-02 1.2013917171778818e-02
      1.3811941978086800e-02 6.0172783479670662e-04
      -5.6578338175994622e-03 -3.0803633427487743e-03
      -4.8420544406368041e-03 -2.4430649218989622e-04
      -1.2971632129901512e-02 -7.0835210086901239e-03
      -2.6842994534115186e-03 -1.1636384146404239e-02
      -7.4663380421900009e-03 6.0415092669255099e-03
      1.4466982954442094e-03 -1.4359754393305200e-02
      2.0875127458429808e-03 -1.3407438539996657e-02
      2.2386053313603067e-03 -4.3965336913626193e-03
      1.0110536251743386e-02 4.1976674756952857e-03
      -1.1414801244173482e-02 -1.0064666344536732e-02
      -4.8182432313448667e-03 7.5151585934365092e-03
      9.0781899152971946e-04 1.4744530045771170e-03
      -4.6808267487344658e-03 3.6952995011618542e-03
      1.0526431931186023e-02 -6.6092049548263322e-03
      8.6443568579556845e-03 -8.2948469409623755e-03
      2.6192383776277956e-03 1.0002120069263036e-02
      -4.5849922258004465e-03 7.3418061905073315e-03
      2.2679894247867476e-03 -1.2574940843578552e-02
      4.8352266572124526e-03 -1.0067158225139305e-03
      -9.4935378205148434e-03 6.9600253967555710e-03
      1.2897736489105428e-02 2.6551022002717101e-03
      6.8040660665874457e-03 -1.5352810563659619e-02
      -5.5100802750494135e-03 1.2369411365642708e-03
      7.3665569536882558e-03 -1.6858691443324431e-03
      2.5926088771114496e-03 -1.5770744603312394e-03
      -1.2310644585137847e-02 4.1321889340565909e-03
      -1.7911452367521845e-03 -7.8301394801105623e-03
      9.9960097325117684e-03 4.7504873247576481e-03
      1.2191864894743786e-02 -1.4211593728297009e-02
      -1.2276668785789896e-02 -1.0848693755866730e-02
      -1.3542948000923526e-03 1.3723263467225457e-02
      3.6433460672012840e-03 3.6733209907965133e-03
      5.2742095548775347e-03 9.6815701244126352e-03
      -2.8938257672575071e-03 2.3097597070276229e-03
      8.4046765298340948e-03 -8.6403535980603095e-03
      8.7753674068898006e-03 -2.0845882174302817e-03
      -6.4831325748115802e-03 7.8398470954272829e-03
      9.3426767181925378e-03 -1.3332604484430249e-02
      -1.2326808958893650e-03 -4.2992965063642647e-04
      -3.6903389122580114e-03 5.0229660969693607e-03
      -1.2215277871169439e-02 5.8927300785797413e-03
      1.4243089544090457e-02 -1.0164715286032685e-02
      -9.3427852611882734e-03 1.3506383863600429e-02
      -4.6852007042267078e-03 -9.9401354961841867e-03
      -1.1965015594065520e-02 -6.2059252438144289e-03
      -1.3206758735656333e-02 -7.1302243427453027e-03
      1.1012960965328729e-02 -1.1606149804707169e-02
      -9.4976642122308105e-03 -1.1926349796884013e-02
      6.1877758907942114e-03 3.6921947278817876e-03
      -4.7764868175298823e-03 1.5118276757687429e-03
      -1.0746077506905130e-02 4.8330987495706266e-04
      2.9091744604263932e-03 -8.7105638253215621e-03
      5.3970010390918628e-03 -8.3838539581156304e-03
      -7.8540825244178721e-03 1.3023469761827325e-02
      4.0437781932812786e-03 -4.2892554125020174e-03
      1.1525191493651594e-02 -6.7645583766552707e-03
      -7.6822223208988620e-04 -4.8119667962523956e-03
      1.0046338855473073e-02 -3.6282647141416746e-03
      -1.1771440904643247e-02 -6.2863560426683982e-03
      8.9000618885143809e-03 1.0868458267182888e-02
      1.2867962909129243e-02 4.0656461860249394e-03
      8.0873532431755685e-03 -9.4019808809197806e-03
      -1.0585212636806885e-02 -3.6139278228307136e-03
      -9.5703097998400283e-03 9.9757363616231175e-03
      1.0022120389934848e-03 -2.9625587072293885e-03
      1.3281969496396049e-02 8.3592782948028830e-03
      -3.9483382157387160e-03 1.1399572214119373e-02
      -8.1673663099926970e-03 -9.6348425048496198e-03
      1.8823813074344442e-03 1.0317688669279977e-02
      -1.1502201322085305e-02 -1.3762726751113393e-02
      1.2894668048346592e-02 1.3856617969921272e-02
      -1.2825029971268045e-02 9.2295116814243103e-03
      1.1910126892579951e-03 -1.0376811152237072e-02
      -2.7026981625083018e-04 -1.3889607169751380e-02
      6.8743588689804264e-03 7.6877589823376473e-03
      -3.6349865920467781e-03 8.6537340667739598e-05
      1.3319930967479352e-02 5.9255421451673189e-03
      5.1473097151260461e-03 -6.1795737269302610e-04
      -3.8948579824136485e-03 9.2826021762965841e-03
      -4.4250148694289391e-03 -3.4053970630916748e-03
      1.1414457429173104e-02 8.2021236583397529e-03
      -1.3257186405816676e-02 -4.1984148100107866e-04
      -6.4221120074163583e-04 -3.6573473689010634e-03
      -1.3581174071596496e-02 -7.8131366930782459e-03
      8.1280693648774528e-03 -7.2703851026604208e-03
      5.4804368665048271e-03 -2.7899803531967367e-03
      1.1128247909217367e-02 -1.1660803700990511e-02
      4.1841021109783954e-04 -9.4568482748574201e-03
      -1.0905658374093567e-02 1.5671458982646487e-03
      1.9064079896389323e-04 -1.2061577106330988e-02
      1.2655688084527494e-02 8.8683688060479555e-03
      7.6023992988665237e-03 1.1053714956902612e-02
      -2.8665678390969078e-04 2.9820236987679180e-03
      8.0394744031844403e-03 1.2517432056073719e-02
      6.0154224611661065e-03 -1.4736221936625795e-02
      1.9092576278053378e-03 1.3695034144577985e-02
      1.4551982694492238e-02 6.9382026771531158e-03
      -8.8813195236409660e-03 8.9917137232807063e-03
      1.2727649904636412e-02 -4.5256549014657962e-04
      9.9726021563506812e-03 -6.2315091863638199e-03
      -1.1577571855370138e-02 1.3478565367879019e-02
      -1.2521570178842317e-02 1.2844805779111259e-02
      6.5213833050779867e-03 9.1471779458464769e-03
      3.7095437611913171e-03 4.0616194623494519e-03
      5.0213098722166009e-03 -3.3138217588175411e-03
      -3.0958126845150144e-03 1.2260744115110869e-02
      -9.4091277996114307e-03 7.1007309513037107e-03
      6.9897441660335497e-03 1.3197452675041408e-02
      5.1059955740062222e-03 5.7616389147359284e-04
      8.6671950499035283e-03 -1.1575153402208040e-03
      -1.1054885806090346e-02 1.4001837160719434e-02
      3.1978233619322084e-03 -3.1825868285581984e-03
      9.2245363842294696e-03 1.0217769424042478e-02
      9.3055623811510828e-03 -1.3202532456847733e-02
      -1.0387213837223784e-02 9.9885757368169941e-03
      -7.8945535685729408e-03 -2.6317896407456126e-03
      -3.8245922206112323e-03 1.2899984059571292e-02
      1.0637963829652474e-02 8.0097092537201476e-03
      -1.5102095211965492e-03 1.2738960284271185e-02
      4.4897014442863061e-03 -2.5124508302369584e-03
      -1.0212175092595300e-03 1.4139072339035278e-02
      2.6002775142996391e-03 -1.0778042122300248e-02
      1.3021891110180091e-02 -1.0341250779322025e-02
      -1.1849977542238160e-02 -1.0665548161622676e-02
      -8.1250726089271315e-03 -5.9569116548495249e-03
      -1.2411465098305817e-02 3.4682152797673527e-03
      1.2769148564858368e-02 1.0996257424118994e-02
      -9.1183091575509894e-03 -4.6549913683506128e-03
      9.0439587343368374e-03 1.4197774773325096e-02
      9.6083288432901315e-03 -7.2858802686600992e-03
      5.6821859698335479e-03 -7.9113883736610293e-03
      2.4766118795386694e-03 -8.1467101051655626e-04
      1.0577784269730533e-02 -8.4712872398905684e-03
      1.1588570430822545e-02 8.9303099981535277e-03
      -9.6773556519689219e-03 5.3072168160396404e-03
      3.6668820521769444e-03 -8.3071180790693592e-03
      -8.4129264677213524e-03 -1.4679934547092240e-03
      -7.5438809281292707e-03 -4.6705146642174959e-03
      -3.4164704449325808e-03 5.1811057907208821e-03
      -9.4196485881138069e-03 1.1573774506659371e-02
      9.6632342150076052e-03 5.1749864550404224e-03
      -7.8877426348848718e-03 1.5202285310827957e-02
      1.2580457961252249e-02 -1.3299360051553348e-02
      2.3454496648556617e-03 -9.7625231686225451e-03
      8.0263417138591378e-03 -1.3138827445712520e-03
      1.1254694602737203e-02 1.3483787430493893e-02
      -6.0510560005377911e-03 -1.6113032189593052e-03
      -7.2856986679542051e-03 1.3885971600402915e-02
      -5.3607264075710963e-03 -7.8918441146028015e-03
      1.2555878799904517e-02 -3.0095217898299794e-03
      -8.6661328421110961e-03 7.2881003742831726e-03
      -1.8748005835634329e-03 7.1956610071126038e-03
      1.2320467992587158e-02 4.2554219664821544e-03
      4.8712035679009920e-03 1.6651026137395040e-03
      -1.2315900177259547e-03 9.9216214474937762e-04
      5.5672990305118686e-03 -5.7812810790661747e-03
      1.8616850568828364e-03 4.7098303773900714e-03
      3.2060630240274952e-03 -9.1887771853382053e-03
      2.6934987258749573e-03 -1.3120886263036710e-02
      -1.3775068442568244e-02 -3.6164613385295820e-03
      -5.0941544552010146e-05 -9.4221502101385600e-03
      6.5639601573066423e-03 9.4660650074416663e-03
      -1.3093371232136740e-02 -3.9801413884132187e-03
      8.4752983867916569e-03 -1.1643812426432131e-02
      -1.0943629002690138e-02 1.2004239107224523e-03
      4.6904301088254285e-03 -7.5796932033291037e-03
      -5.6856446899788502e-03 6.1885381910329225e-03
      -1.9371719276100026e-03 -4.8689771419705326e-03
      9.3296857218193203e-03 -1.2149361225775422e-02
      8.1655951169697593e-04 -3.1834353232574660e-03
      -1.0320983081887860e-02 -1.4234671290616117e-02
      -4.8814481043154010e-03 -1.2484543132973728e-02
      1.4119495644996878e-02 1.4409993420845856e-02
      -1.2429162839799619e-02 -4.5049861711532069e-03
      -6.4848344556637082e-03 8.3182266374820270e-03
      -9.3100848738262836e-03 -4.0643988562063292e-03
      4.3414217551773441e-03 3.6117839391654289e-03
      2.3797678100754803e-03 7.2182220807886057e-03
      3.7461764280150140e-03 7.2032198600237756e-03
      1.0170189372578590e-03 -9.8529364301001322e-03
      -6.4080477240407595e-04 1.0299662399395278e-02
      4.6022388513039256e-03 1.5486144506185502e-02
      9.8349041596942788e-03 3.4522719228825501e-03
      -9.2139733775951933e-03 5.2051454922003061e-03
      -1.1126180818529351e-03 1.1208618354681659e-02
      1.3031393519488748e-02 -1.1563466724182179e-02
      -1.0883916161941631e-02 4.9133881411179883e-03
      -3.9083878194516317e-03 5.2932506546835185e-03
      -1.1917076529485912e-03 -1.9598237419851854e-03
      -1.2303323114358259e-02 -1.1800641294737110e-03
      8.8188101863898929e-03 -3.1418794829810455e-03
      -8.8186103863067064e-03 -9.7109892585443246e-03
      6.6811956126397983e-03 3.1389397991822657e-04
      -9.8714526618152824e-03 6.1725935492000254e-03
      9.0419359923229366e-03 -7.8153875322663040e-03
      1.3167745125091262e-02 6.9681631333557937e-03
      -4.1417860696509731e-03 -9.1394256810336284e-03
      1.3254765504088077e-02 1.1856651928238444e-02
      4.4676058773596723e-03 -1.0826827283401657e-02
      4.6791044618314695e-04 1.2020791737006809e-02
      -1.2895273375661532e-02 6.4490413054868207e-03
      6.0258342857569007e-03 -2.5204407151607056e-04
      2.6075183577752074e-04 -1.0292174556211502e-02
      1.1813087333326288e-03 -4.2773730784538997e-03
      6.2633320708912832e-03 4.6537675708455302e-03
      -4.4358323580485672e-03 -2.1513605619078243e-03
      -3.4328627564587271e-04 -4.9259126182904273e-04
      -1.1691869945393246e-03 -1.0650297466817489e-02
      -7.8849862334468279e-03 1.3197355045278534e-02
      9.9346298702407895e-03 5.2624056508551254e-03
      4.8442159976594028e-03 -4.3052690537134797e-04
      3.5323006483406407e-03 -6.1013088345032241e-04
      2.0661617664855169e-03 -2.6487692030116735e-03
      5.1848979128590669e-03 -1.4476930683289290e-02
      1.1898231785703215e-02 3.3278030909029616e-03
      -2.7430094709303605e-03 -1.0221135129667264e-02
      1.2848638359756706e-02 1.4124132958209145e-02
      -5.4132724750409486e-03 5.6561086600824479e-03
      -1.6859678696018031e-04 -5.6785539893008802e-03
      -1.2365138919891740e-03 -7.5461898912928980e-03
      -1.8321230970917025e-03 1.9522459608228840e-03
      -4.6952505781476181e-03 2.8636887648239252e-03
      9.0936162812854833e-03 -1.2565880053921202e-02
      5.3634372372167241e-03 -8.0953978692434609e-03
      -9.1265990344909325e-05 8.5688802597812825e-03
      5.1415923608808473e-03 -2.7924805230268310e-03
      4.3999336186844500e-03 4.3341637301029185e-03
      -1.1853913414193095e-02 3.0242011595736536e-03
      -1.0818500156165778e-02 -2.5390252315411936e-03
      -1.1121760691485089e-02 -6.0060555878369720e-04
      -1.2455245298315496e-02 -5.9878120071999458e-03
      -1.1383929556741338e-02 -4.2350396300808966e-03
      -6.3988984893154806e-03 5.5460655970749504e-03
      -8.9950191150793861e-04 -1.2999880961405143e-02
      -1.4227583570046944e-02 -1.3710724309300114e-02
      1.1121572342291157e-02 1.4803134736600766e-02
      9.8426971294168983e-03 1.3394075732641598e-06
      6.5979477728135075e-03 -1.3767853187774811e-02
      5.2007136822780570e-03 8.6285449189695690e-03
      -8.9469454444335572e-03 -1.1508370765671060e-02
      -7.0620601742557802e-03 1.1481304937042686e-02
      -6.2909617291370063e-03 -4.3726830030818174e-03
      -9.0402647675886447e-03 -2.2076284462763844e-03
      -7.9982233265033873e-03 1.0390470868984522e-02
      -9.0223738168762405e-03 4.8605521812921573e-03
      2.6093633577198290e-03 8.7889029137953375e-03
      6.3975640823044693e-03 -8.1684908395512155e-03
      -4.0231767241349671e-03 -8.1228308733726669e-03
      -1.1914245369499010e-02 -1.3008714111429683e-02
      4.8127283016621827e-03 -9.4908842459146409e-03
      6.8609319398491601e-03 6.6114168138828111e-03
      8.0184884565359261e-03 -1.3200760808519918e-02
      6.1061173807490559e-03 5.5691252997530612e-03
      1.3019938260954718e-02 -1.2821652169543068e-02
      -1.0203362369332492e-02 3.7531862070129958e-04
      -5.1718346008530107e-04 -6.0029883740252993e-03
      1.3551686382140713e-02 6.2717481795938630e-03
      -4.1531386120934799e-03 1.0867407321855652e-02
      -1.0269553637577741e-02 -1.1220793506086816e-02
      -9.1322329276165223e-03 -4.2661809302891335e-03
      -1.0211327944762746e-02 1.1328193667879667e-02
      -4.4191621995579369e-03 -6.2344838145174646e-03
      1.2723229886766002e-02 1.3444633115310656e-02
      7.1515701904539741e-03 -1.1358193792250936e-02
      -5.4779103371053114e-03 -8.6490388195123221e-03
      -4.6356909499739498e-03 -3.9266956790773282e-03
      -1.3771096574126550e-02 8.2578659293027316e-03
      -8.1393730170495199e-03 -9.8419912859884183e-03
      -2.3221607080998845e-03 -1.1789911309555336e-02
      -9.6211687054653938e-03 -4.4207346702381653e-03
      1.2151724988454704e-02 -6.2771982108636446e-03
      -1.1257797457238185e-02 6.1665052412579978e-04
      -2.4336181180684645e-04 1.0662431429324602e-02
      8.2093119435980039e-03 9.5631591384236943e-03
      5.8161843755485561e-03 -1.1115175511287732e-02
      1.1486309086485886e-02 1.1672460400643249e-03
      1.1021355333921758e-02 -2.3113209655525074e-04
      -8.4121562405309151e-03 8.0419429417200369e-03
      1.1087959647240657e-02 7.8091052497657786e-03
      4.6145248933630971e-03 1.3446485895605084e-02
      1.0721537580070318e-02 -6.4579719956913018e-03
      3.9867369468081053e-03 -5.1667075420805354e-04
      8.2177155703493879e-03 2.7172396415393223e-03
      -3.5821527218056317e-03 6.0207884287682692e-03
      1.0846525653705245e-02 -4.6508541977115393e-03
      9.1749417619056556e-03 1.6060270657567604e-03
      -2.0069747674735807e-03 -3.0798859038188312e-04
      5.2452740580968557e-03 3.9583219428444196e-03
      -5.4756420276633995e-03 7.8365397927520532e-03
      5.6805713299049780e-03 6.9160040792393424e-03
      1.4493321232533190e-03 -2.8692051127051140e-03
      1.4926292929378026e-03 -9.4431554231901044e-03
      -3.9113422402960417e-03 5.6022053146338457e-03
      -1.7747921322928623e-03 2.9178685598825159e-03
      -7.9729424762404501e-03 3.0434929656328511e-03
      -2.6151886552751476e-04 -7.6330706872082994e-03
      1.3584828466169674e-02 5.9023188135143723e-04
      -9.0087081036733744e-03 -1.2405969116151657e-02
      -1.3124599936616792e-02 7.6802458810402412e-03
      8.6727556202541593e-04 -1.0871529990071278e-02
      -1.0479127576501299e-02 -5.7148463498540262e-04
      -2.4812084422735151e-03 -4.9762938617300208e-04
      -1.0123207817207451e-02 -1.0393528638818360e-02
      7.9290633696646982e-03 -9.8907633142090862e-03
      -1.1721684053049108e-02 -1.1607232517918373e-02
      -1.0667839918512077e-02 1.1515659970552719e-02
      -7.0736556266820256e-03 1.1556453349381048e-02
      1.1122389987096750e-02 1.1172638445136180e-02
      -1.1315732389632484e-02 3.8837116993506787e-03
      -1.2474612706769930e-02 -2.4208704176579519e-03
      -4.3164618659298952e-03 5.1799205468513673e-03
      -1.0879757657209076e-02 1.9911619474791680e-03
      6.3711345444956383e-03 -8.2249337015511802e-03
      4.0251453178532185e-03 3.5256554793252062e-03
      7.5955584966025764e-03 -1.5163073901827176e-02
      -1.1033768926951735e-02 2.9299368116747417e-04
      -8.2903755511788135e-03 -9.2746921357973449e-03
      -1.0839538364853197e-02 -2.9672043641417608e-03
      1.3914123914851768e-02 1.1957624937096036e-02
      9.3026330966227457e-03 -1.0508677086308671e-03
      3.3113726508293864e-03 -2.3305710189424518e-03
      -1.2744898121796985e-02 -8.2210349907064269e-03
      3.5897871284550817e-03 9.2995092824528485e-03
      -1.2703316245762999e-02 7.7349019699939209e-03
      -7.8313619330585976e-03 -6.5818452934906461e-03
      -1.2891311660500556e-02 4.6489428760704025e-03
      4.9239904800517991e-03 1.0740939991061655e-04
      1.0525159387282648e-02 -6.7533814925692685e-03
      1.1924289915864127e-02 1.4812425578406138e-02
      -9.1028089224924561e-03 -2.4285602618943497e-03
      -1.0515714383264028e-03 6.9702563440533459e-03
      -8.9663305743500274e-03 -1.3274871783402403e-02
      3.5402380250814120e-03 1.0950782180265352e-02
      -1.0435266719969831e-02 1.3554040340281454e-02
      -1.1304161670828029e-03 9.5115787606920906e-03
      1.0799584563688975e-02 1.3707453828188138e-02
      -3.9367139956277540e-04 7.8040438788170253e-03
      3.8609624000665904e-03 -2.0971150972783500e-03
      9.1259460004907318e-03 8.2447528361811705e-03
      1.1441183817499229e-02 1.1166449503225503e-02
      4.5783591594452120e-03 -1.2049645711003330e-03
      4.4111625615057678e-03 1.4026215892072461e-02
      9.5376192139144441e-03 -2.0095008361962238e-03
      -4.1481093895950356e-03 1.3446250384428992e-02
      -6.5425692995692356e-03 1.2301117817512492e-02
      1.2445338465128105e-02 8.9061198954298211e-03
      1.2376354752286038e-02 -3.6756708328626354e-03
      1.0152977115210458e-02 7.1463357637954394e-03
      7.5157570581774657e-04 -2.9587181745697474e-04
      -7.8761450782289556e-03 1.1195498763956225e-02
      -1.2791701261204647e-02 -1.1446111195383062e-02
      -4.1548979078593253e-03 -4.6686180228089104e-03
      -2.3306411414641681e-03 1.0711910619899954e-02
      -1.0394753458139337e-02 3.4581113131561220e-03
      1.0764318689013031e-02 -1.8899512743236176e-03
      -1.0074922320191365e-02 9.8997436045903681e-03
      -1.3647125534328432e-02 -5.7313061596326667e-03
      -1.0242179659048401e-02 1.2002399782841063e-02
      9.5370580072154307e-03 6.5393473041516284e-03
      9.4351018245787590e-03 3.3470716696520622e-03
      1.2605501281400568e-02 1.2396540239615877e-02
      -8.4293533039634504e-03 -7.4359628350648393e-03
      -1.1707856477619259e-02 -1.3001558232575896e-02
      2.8121992405216586e-03 -5.1200691230169769e-04
      -8.4002580145684184e-03 -1.2144200512609621e-02
      -4.7890703529968005e-03 -2.0260969323636583e-03
      9.7157186159459643e-03 6.1155870530777466e-03
      -1.2097300809453714e-02 4.8961315785120765e-03
      1.1130272710222135e-02 1.4850380469582166e-02
      -6.0052220900251585e-04 5.3459535867187210e-03
      -8.6409411978620298e-03 -9.1297119849567277e-03
      1.4596630029754346e-02 6.6118465769557386e-03
      1.3060337834748277e-02 -3.7516708144277639e-03
      1.0427977469031197e-03 1.1463873497847790e-02
      -1.4356653826822405e-03 -7.1604193324800872e-03
      -7.6714640824522441e-03 9.6755137080307575e-03
      1.1955802559282637e-02 2.5128621987380809e-03
      -4.9432197643661663e-03 5.9438977992875806e-03
      1.1835668917602011e-02 8.2048450346873230e-03
      1.3413071450321203e-02 -9.9756723161314857e-04
      -7.3863402884688841e-03 6.2403563250463807e-04
      -9.6502479609324454e-03 -2.3050630050849359e-03
      5.4845437976032228e-03 1.1449841636016858e-02
      4.5614224980729248e-03 1.2142754015040363e-02
      -9.6140125313714173e-03 4.0285849185374618e-04
      1.1322981890190531e-03 -3.8169096820098473e-03
      -1.2455168380820773e-02 -1.0554048226621270e-02
      6.4480023048293731e-03 7.2259012544943083e-03
      4.4810269939859239e-03 3.6579538522450337e-04
      3.7855453422457473e-03 -4.5012168582824613e-03
      -1.2306610865545156e-03 4.8906425915530467e-03
      1.2251181298874210e-02 -1.1584469539278799e-02
      -3.2305069730442803e-03 -1.3735914783397416e-02
      -3.5096060406520553e-03 -1.4270344963975622e-02
      -6.1949647596853379e-03 1.5180541833616473e-02
      -8.0276656433519392e-03 1.1112590947547619e-02
      7.0980685887279422e-03 6.3204139499139587e-03
      2.2805064656542745e-03 -6.2074978067057016e-03
      1.0619399892654308e-02 -1.1537055921721417e-02
      -6.0412404066151415e-03 -4.1732751562016061e-03
      6.9816471211600973e-03 2.2260332052317232e-03
      -1.8600492541934342e-03 3.1709967395642954e-03
      6.1521173903616097e-03 -1.0263188310408410e-02
      -2.7174409635070313e-03 8.4077316206030896e-03
      1.6265258254977405e-03 -1.3654449078242875e-03
      4.6356050731647435e-03 -1.3923744153432999e-02
      7.6518069821990987e-03 4.4887841089784383e-03
      -1.0686876749672020e-02 -2.3635815456139533e-03
      -1.0342918540819071e-02 5.5011492501318409e-03
      9.2745757994147290e-03 8.5215329496056962e-03
      -4.9458900561095594e-03 -1.3902018277727021e-02
      1.0590815289391356e-02 -1.4155405765169963e-02
      1.1817941335153860e-02 3.6236618227273119e-03
      9.3626332123274130e-03 -3.3307444158891921e-03
      5.3662537357873933e-04 2.9685199060767542e-03
      -1.9438658025138287e-03 4.4361379426228380e-03
      1.3659759250140490e-02 8.8761838345184346e-03
      -1.0950592515542342e-02 7.6054190729597532e-03
      1.4258637953582268e-02 2.3252861897103605e-03
      -8.3858863114212728e-03 8.7240056717633602e-03
      -7.9125160669158237e-04 -1.3294894644473157e-02
      -6.0132960844689219e-03 -3.0773548238966367e-03
      3.9313191650135835e-03 5.5902629838705748e-03
      8.1468056892835972e-03 -1.0585708620001097e-03
      8.1721370848315718e-03 -1.3615360569987606e-02
      9.4506482933982144e-03 -4.8037090139903763e-03
      5.7207995908808680e-03 -6.1438314924667980e-03
      1.0137881207026907e-02 -1.0618979328844771e-02
      4.7840740838131987e-03 1.0213470420093490e-03
      -4.4495129789444967e-03 -9.5464131894781954e-03
      -7.6621917739365872e-03 1.1313137010720776e-02
      -2.5950791467286563e-04 9.9643297782833588e-03
      3.7124618300890719e-03 -9.5296292898077554e-03
      8.1195981728078776e-04 4.6329266110199758e-03
      -1.4337486778191326e-02 4.0082048182587182e-03
      7.2104565303061459e-03 -8.1045900770203641e-03
      -6.8969811190902914e-03 1.4978039537793088e-02
      -1.3472008771094062e-02 -6.8177992875102728e-03
      4.5902336096493059e-03 5.0771666286765840e-03
      6.1125240349112252e-03 7.6095845676278761e-03
      7.1423613574363148e-03 -7.7094558225770790e-03
      -9.8607219661287528e-03 -1.1774355335401217e-02
      1.1236013658215641e-02 -1.5952082854362977e-03
      -7.8448910426618214e-04 1.3925616462405165e-03
      1.1721786011790747e-02 -1.1184669408590499e-02
      1.1657001594077948e-02 -1.3365205020719542e-02
      -8.8369777586752938e-03 -7.0178154046918123e-03
      -7.7954645095969369e-03 4.5308650951617919e-03
      -4.3665837287749946e-03 -1.3536369366984431e-03
      -2.3508188592709402e-03 2.8259392957816509e-03
      -1.1930295684239849e-02 -6.5560934602104885e-03
      -2.5374127047358770e-03 1.5489752064551813e-03
      2.4583941307653769e-03 -1.2995872286907283e-02
      7.5930704626746516e-03 -6.3192059045371280e-03
      2.3690661218519144e-03 -4.1209620845860419e-03
      -1.9240507429995360e-04 -1.0640295568095565e-02
      -6.3418541230234491e-03 -1.7415928314159321e-03
      1.3243081746053258e-02 -7.9682883788303981e-03
      1.4560477264926295e-02 2.1553517835718491e-03
      1.3065858233801710e-02 1.2206786649686161e-02
      -1.3542887650631464e-02 6.7144213047114825e-03
      1.0396246776933293e-02 8.1532344635045339e-03
      9.0329756562383141e-03 1.2552946030154987e-02
      -2.5007903148046846e-03 1.1147941771493043e-02
      8.2541040382448968e-03 9.5431631682929194e-04
      -7.0389476533533188e-03 -6.6054065926853464e-03
      -5.2544598350306084e-03 -2.7864905130070691e-03
      -1.2506468674357939e-02 -1.2438038092948011e-02
      1.0494859664945183e-02 1.2136646190422257e-02
      -8.9369544491823966e-03 -1.0814494257225263e-02
      2.0134780516617335e-03 5.0114224370193623e-03
      4.2046522671212823e-03 8.3622970068044505e-04
      -9.5745739071129467e-03 -1.3544749431167985e-02
      8.1143383204886326e-03 -4.3093451791409671e-04
      4.4960794370831596e-03 2.7966668267408797e-04
      1.3699650456908895e-02 8.6439949738577812e-03
      1.6326389545912251e-03 3.1240152872703608e-04
      1.1195844395277054e-02 -5.9376233713790963e-03
      -2.0487915160071861e-03 -1.0389315715654842e-02
      -5.4210504056072953e-03 -4.2992194343594884e-03
      -1.1733420602706173e-02 -6.8489522507231984e-03
      7.5799262390307490e-03 2.6031449272782160e-03
      -1.2623376271513409e-03 1.3384845204306429e-02
      3.9411865356100270e-03 5.4940262954178221e-03
      6.6146073842254750e-03 1.2698970071129930e-02
      4.6226853112980174e-03 1.3493035621938465e-02
      2.6910354075443494e-03 -9.2575913813307629e-03
      -8.8051666539342675e-03 -8.9849208882259949e-03
      -1.0242360698609138e-02 7.7345626844436410e-03
      3.0340183245246722e-03 -1.1282557234286405e-02
      -6.1453407354899070e-04 8.4522062873256653e-03
      -1.7073604742281407e-03 1.9802362896116253e-03
      -1.2773175321289675e-02 -4.9705627259709921e-03
      -3.1430272904614020e-03 -1.2164319689165592e-02
      -6.6512552300165102e-04 5.1534844392316127e-03
      -5.9611742653009987e-03 2.0469212819985614e-03
      -3.9226204751021121e-03 -1.5116929051128186e-02
      1.1479936806671495e-02 -6.4244663345261006e-03
      1.3178127556301801e-02 2.3534997590137527e-03
      5.9058991148905025e-03 1.8075871497672262e-03
      8.8204689430562873e-04 8.8415377529597189e-03
      -4.6976020691068899e-03 1.0664768145346967e-02
      3.9055583201353184e-03 1.3390544934036901e-02
      -2.4720387215851412e-03 -3.8919877240484579e-03
      -6.1120186771650316e-04 -1.1692902264638557e-02
      9.0142805313860319e-03 2.3718886547369304e-03
      -6.4909717249670680e-03 8.8750074491319025e-03
      6.0710430343700692e-03 9.2298288114982599e-03
      -1.5753261496582616e-03 -4.7316303119565488e-03
      -7.5444413038070332e-03 8.7074117981628552e-03
      -1.1980751654524809e-02 -1.3914607589634972e-02
      1.7715351452822954e-03 8.7483078763818216e-03
      1.3286255287443162e-02 -3.5154080979415861e-03
      -1.3340689379179860e-02 1.2956606946176980e-02
      -1.3485870923291780e-02 5.3245333176746169e-03
      -8.3315479914429485e-03 -1.2895782774483359e-02
      1.1394104463727281e-02 -7.6354684427721647e-03
      1.0518679247823076e-02 -9.4528863649635895e-03
      -7.9423850249427021e-04 -3.7277056691751385e-03
      4.2365833985243814e-03 1.1150965008878449e-02
      -4.4235934789935583e-03 8.8517203754054814e-03
      2.6690707877452735e-03 -1.5863522355752380e-03
      7.0328948557292163e-03 -2.7448750561222825e-03
      -8.1031119195465878e-03 7.9891179519266473e-03
      -3.0067003882686019e-03 -1.2292728253015949e-02
      -1.2186933582497403e-02 2.5463625094217148e-03
      6.4028361966815021e-03 -9.8071440740990848e-04
      9.0227236748230074e-04 -2.5228454987881940e-03
      8.3657323496683154e-04 8.2472885403790646e-03
      -8.4383096913635200e-03 -1.4510679214242837e-02
      1.0179867791792120e-02 1.1402027090589507e-02
      3.7576298023676738e-03 6.9571127309491256e-03
      -1.3191184944987942e-02 1.2847992472929354e-03
      -8.7645243354285956e-03 8.5272488237063803e-03
      -5.7702124708419083e-03 1.2157550190031289e-02
      -1.3524621281632856e-02 -1.9891638477005291e-04
      -3.6054451593159987e-04 5.3280647887407311e-03
      4.8905027856310842e-03 3.0612903163838179e-03
      6.7640047630124369e-05 5.9469687012407169e-03
      1.3180305614975392e-02 -2.2715370658901945e-03
      -1.2529786457763793e-02 1.2951973551217550e-03
      1.9065615718216538e-04 -5.4301717383927247e-03
      1.0975720290650458e-02 -2.7617784177611160e-03
      6.1851664148008748e-03 -5.4307543776025606e-03
      5.1677222447087004e-04 -9.5212334217425129e-03
      -8.7425988179790223e-04 2.7836124144408276e-03
      8.8001803711424895e-03 -1.3284910321896267e-02
      1.2467452318287626e-02 -1.3312125322110331e-02
      -1.9192406173483500e-03 3.5186240440844138e-03
      -1.1467571717377457e-02 1.2794432821085571e-02
      -9.0591895681747230e-03 7.4172922448546624e-03
      1.1380954228172254e-02 2.3538610048665963e-03
      1.0736657885777287e-02 -7.8802576366590257e-03
      -1.1069049999559150e-02 -1.2130726122885431e-02
      -7.7476201434557848e-03 7.4154574848870241e-03
      6.9205710126557232e-03 -5.2470441955212686e-03
      8.9520203333169519e-03 -3.1147421888155229e-03
      1.1735536247577691e-02 -4.1668112008477632e-03
      -8.7570004755199371e-05 1.1571072843683356e-02
      -2.2347128221503042e-03 -8.5651599342215206e-03
      6.4844051912003346e-03 8.4523020683061421e-03
      -6.6064966251041146e-04 3.2675264911946307e-03
      -3.2666351825497608e-03 -9.8269560402293211e-03
      8.8153072157741586e-03 -1.8193426584165251e-04
      7.3445689931630241e-03 1.1069705819995890e-02
      8.4322457815530112e-03 -3.2936301199702521e-03
      1.2727574155131800e-02 -6.9022409162410592e-03
      -7.8942080127851807e-03 -8.0258146297166582e-03
      5.5439308636808828e-03 9.7429385592849149e-03
      -1.0992113228088388e-02 9.2084828053308025e-03
      2.7237071832692892e-03 6.4232377579631775e-03
      7.6039490034007827e-03 -1.1186393671849542e-02
      -5.6736096559739657e-03 5.2602018371989837e-03
      2.6615294257251909e-03 2.3193415078718751e-03
      -8.9924094712179829e-03 2.6284367847048164e-04
      1.0172129534109266e-02 2.4332181996690161e-03
      6.1173155334932616e-03 -1.3633277849827430e-02
      -5.2745144663996109e-03 3.9571670038982855e-03
      -7.7556378309494413e-03 -8.0335530351637891e-03
      -7.6271512423000546e-03 -1.6077623267628943e-03
      -1.0975117780744113e-02 1.0738300231961028e-02
      6.9693954296288288e-03 1.4891996827639217e-02
      1.1677483998683520e-02 6.1317253347221105e-03
      -4.9633821867803790e-03 -7.0078526075616297e-04
      -9.3743529619837122e-03 -2.7301370199652665e-03
      -9.1487305179463844e-03 -4.2514592943108933e-03
      -8.4410657841184657e-03 -7.8891920601945453e-03
      -1.8611946331149268e-03 -6.4490647575885639e-03
      -8.0639854800025682e-03 -3.0587921014550200e-03
      -1.0705972997910767e-02 3.3481108238197451e-05
      -7.3595623822327689e-03 -8.3318368166735608e-03
      8.3378221219726836e-03 -1.3778625435094912e-02
      1.4088621019271443e-02 -6.5875967045780385e-03
      -3.9743693846525548e-03 3.0808947198678088e-03
      -3.2371098958361979e-03 -3.5444915046123704e-03
      -2.2371025053680922e-04 2.7230552180990204e-03
      1.4504969140614899e-02 8.1132526275191578e-03
      -5.1334412294708441e-03 6.6547679640285018e-03
      1.1006652930796071e-02 -3.4248852621101239e-03
      8.6900068499744243e-03 -7.0839690927579696e-03
      -3.6604207983644398e-03 3.3820188860750225e-03
      -7.4659868749456749e-03 2.6812356346565792e-03
      1.1574022615923978e-02 2.9405105612607253e-03
      1.1549275233890460e-02 6.6049871397750627e-03
      -4.3475535216754855e-03 1.1889484317091028e-02
      -8.9141614508872636e-03 -6.3150196466902576e-03
      -5.8932670664427348e-03 1.1096825716223819e-02
      -2.1065411322949029e-03 -4.6739308743536118e-03
      -2.5397307296855620e-03 -1.0819314021086551e-02
      8.3938546848773901e-03 -6.1797081347621163e-03
      -1.1793526184748816e-02 4.1400585668530023e-03
      1.5607703171572905e-04 -3.9119184759971708e-03
      1.1751075508681563e-03 -1.3685677072111884e-02
      -1.0950446975501415e-02 1.1173275440029318e-02
      -3.9050740786216011e-03 -1.3366680134009450e-02
      9.0865704219392895e-03 -2.2095618460589821e-03
      -4.7147530987256374e-03 -7.0813839125655519e-03
      -5.5740306969886072e-03 -5.6893489880845312e-03
      -8.6487113105700539e-03 -5.5007200750663114e-03
      -9.2922301654377003e-03 3.1103279929086314e-04
      -5.5054848409342742e-03 -1.0641725364691826e-03
      -3.8227904510518629e-03 -1.1623767254946380e-02
      4.4064501425801804e-03 3.4604887553037903e-03
      -1.2803346129914166e-02 -5.8241487118758579e-04
      7.2216258625948807e-03 8.5260121678635836e-03
      -2.9481144058854142e-03 3.0462683285183006e-03
      -7.7678931194367752e-03 6.9675941730201231e-04
      -9.7929364784666486e-03 6.7288655649794891e-03
      -6.5427313466569551e-04 4.3156978083197335e-03
      -1.3225872836783290e-02 6.4314406548294780e-03
      7.0160084744977256e-03 5.8092425418604992e-03
      -5.9658064508202758e-03 -9.9005781325707132e-03
      -7.4388294470331667e-03 1.8975654280693757e-04
      -1.0562974434332913e-02 8.6290822848045703e-03
      -1.3576840643137347e-02 8.7655347979812795e-04
      7.3993345139275512e-03 1.4933414125478499e-03
      -2.2100138096620300e-03 -1.9959409154276194e-04
      7.2304924084456903e-03 -8.5339225674366543e-03
      2.1911607786426176e-03 1.2164715955619262e-02
      -6.8096559435341661e-03 9.7244542485078482e-04
      -6.2384098161848466e-03 -1.0339064678947131e-02
      -1.3254434951956598e-02 1.0804063418386337e-02
      -3.3325755041138856e-03 -6.2662729146975059e-03
      -9.7591781783094855e-03 -1.3925764412025563e-02
      -3.0157598726833013e-03 1.2271105746980270e-02
      6.2231517318337573e-03 1.3331241613563962e-02
      -1.1859695713907166e-02 1.1191037810163566e-02
      -4.7857960094696258e-03 7.7181423427894278e-03
      -3.4790806697087016e-04 1.1779099937307979e-02
      1.1616317872549062e-02 -1.3996632761672539e-02
      1.0223715679407899e-02 5.9932035626473435e-03
      -8.0094309793476322e-03 4.6116498865352981e-03
      -4.2110274349208953e-03 -6.3381240132808752e-03
      1.1992415919858031e-02 -9.3816464732588561e-03
      3.2734114326401220e-03 1.3934019858051386e-02
      -9.2455682971567289e-03 -7.6437864966919606e-03
      1.1392467436798894e-02 1.1151271954561802e-02
      3.9219983409917508e-03 -7.1514248319370444e-03
      -1.5570831120672595e-03 -1.2880129927611712e-02
      -1.3477504244121516e-02 -8.0554861476313418e-03
      8.1782348675756237e-03 4.7645699218234914e-03
      5.9164915771790843e-03 -4.4323886214823437e-03
      -1.5579371175886731e-03 -1.0093430168638834e-02
      -5.5359292621201209e-03 -1.1545861607754301e-02
      1.0912881830604751e-02 -5.8513493254846128e-03
      3.5078256033943562e-03 5.8214802369433577e-03
      -3.3996850824246521e-03 -1.0093879293275834e-02
      1.0966201347641747e-02 -8.3544753507337009e-03
      -4.6738436754613080e-03 1.3685849861159380e-02
      1.2647898556961809e-02 7.7721457457141895e-03
      -5.2200122693066035e-03 -3.0484873874430615e-03
      8.4220416760109745e-03 1.1274070576866220e-02
      -6.1206504780233918e-03 5.1567181216520368e-03
      -1.3711019163821883e-02 1.0092352481533153e-02
      6.2920969996152739e-03 -2.2192425712584717e-03
      -1.1940074819058601e-02 -8.7673719042609313e-03
      5.9956575882578137e-03 -1.5503831744023155e-02
      -3.6316623069950729e-03 -1.1883923579245170e-02
      -1.1134882553489055e-02 -7.0471881374510300e-03
      1.1245425597074987e-02 -1.3400010269148841e-03
      8.6626648605996320e-03 6.1365924701319938e-03
      5.7586713310814634e-03 4.5835868456740170e-04
      1.0577407163024473e-02 -3.1592680805518948e-03
      -1.3390329354934460e-02 3.6092027875817322e-05
      -7.7072519265205044e-03 1.2768573599062567e-02
      -2.6329961083702597e-03 1.0737323060597007e-02
      -1.0437848076876923e-02 8.3648843319876990e-03
      1.0487628806874609e-02 -9.9421565273051758e-03
      -2.8420163655376528e-03 1.3002214620277843e-02
      -1.1901484391644753e-02 6.1806793884071880e-03
      8.2822378016386648e-03 9.5569822214486583e-03
      6.8101494428392999e-04 -9.6012127042780573e-03
      1.4051546455237560e-03 7.8826595304568752e-04
      -5.9612714115212682e-03 1.7016301163968017e-03
      1.2199483287207546e-02 1.0551611244009570e-02
      -1.4565698936373985e-03 1.2462800917886752e-02
      -1.2754460996704717e-02 -4.5226687806200821e-03
      -4.4212835551346967e-03 -1.2111169431633065e-03
      -1.2970721607062195e-02 6.3516022168675287e-03
      2.3834740524638124e-03 4.8719705642768802e-03
      1.3415842784591165e-02 1.2194654480416792e-02
      -1.3413293147796183e-02 1.3153044324529909e-03
      4.0336149874976222e-04 6.8013395623269871e-03
      7.1431292628160786e-03 9.8710688099408282e-03
      -7.2564376133451812e-03 1.1792152325322510e-02
      -4.3652510825626899e-03 4.7208338503163900e-03
      -9.5133810906605238e-03 -2.8418812198818771e-03
      -1.1337468743490051e-02 -3.3767341979982451e-03
      8.5649685609152041e-03 7.9342196708264163e-03
      7.6837240988776936e-03 -2.7810706413385191e-04
      6.0910451934114915e-03 -7.0265793517390578e-03
      7.6467515368570009e-03 6.7254029551624640e-03
      -9.9057999212097160e-03 8.6401371716767379e-03
      -9.4423101821804849e-03 1.3568983329002322e-02
      4.9774987931798763e-03 -1.4184641417434692e-02
      -8.4517218391992385e-03 -1.0221532340894105e-02
      -4.4966316851210615e-03 -1.0511116706255926e-02
      1.1310676529845132e-02 -6.9145380658982214e-03
      1.4512379464132844e-02 1.3000588144114317e-03
      1.1378762978163917e-02 -3.2361966478523357e-04
      1.5248928910176454e-03 -1.8311847228639430e-03
      -4.8180919529125822e-03 -1.2548949404541286e-02
      -6.5870311915265751e-03 1.1850492763538409e-02
      1.2388020024414303e-02 2.9482198310896196e-03
      -1.3523187211224301e-02 1.2523335044740482e-02
      -4.3077591641737523e-03 8.2285625482131884e-03
      -2.8173510446764818e-03 -5.5218878864481289e-03
      7.5364973492245417e-04 1.9841016966268988e-03
      -1.0310538665448692e-02 -5.7834506613739780e-03
      4.7725875774939520e-03 6.6140960234626778e-03
      -1.0886339257626006e-02 8.5560766513355820e-03
      -1.3415617719890111e-02 9.7936790946109419e-03
      -2.6347813217664951e-03 -7.8770405063286301e-03
      -8.9788631462620460e-03 6.9973305007446293e-04
      -1.0775786030021672e-02 -4.7284068927809673e-03
      7.3205197758571372e-04 3.8129323435991736e-03
      1.4028697446597384e-02 6.9342426524358928e-03
      -1.1213842603563615e-03 -8.2118097896766926e-03
      -4.7673649341782396e-03 1.0781390521120005e-02
      7.5460839744298167e-03 1.2907375560467452e-02
      1.3102751212977127e-02 -3.6195006469916663e-03
      6.6525659344030593e-03 9.4546581648316270e-03
      3.7164999571176415e-03 -7.5181130811783235e-03
      1.2829487806540354e-02 -1.3612520976849982e-02
      -2.0006556739569866e-03 8.9943159670980502e-03
      -4.0219045662879217e-03 4.7895366856421174e-03
      -5.0322373528472984e-03 1.0021620411406383e-02
      1.2422139909303839e-02 2.5151506582283536e-04
      1.0358985986907593e-02 6.3842208947198879e-03
      3.8247729416997808e-03 -1.1296501747382960e-02
      1.2613561024956761e-02 -1.2679173632036014e-02
      1.1850518555739299e-02 8.7824659754121744e-03
      -9.3302835427150101e-03 6.9063352575451003e-03
      -1.0105289120670038e-02 -1.0105496366084880e-02
      -7.9573865928375224e-03 6.7154065725295933e-03
      3.7566704232946495e-03 5.5742037842974228e-03
      -1.4025690680481123e-03 -1.2500327188660862e-02
      1.0784745628661160e-02 6.1047636997846244e-03
      -4.5524268197350394e-03 -1.2251267805005430e-02
      -1.0433450117382295e-02 -1.3663742146715981e-02
      1.3307849249084305e-02 3.6236817398381453e-03
      1.0509310770241935e-02 1.0250800310130318e-02
      -1.0845906016725941e-02 9.8853906927232529e-03
      1.1550162625537364e-02 4.5653404379390429e-03
      -4.2926817557665227e-03 6.3899415164762044e-03
      8.5075470994494182e-03 -1.2611087125375219e-02
      -5.4368781441264469e-03 6.0235033242853880e-03
      -1.1313278760796231e-02 2.3451055202388829e-03
      -1.2403732426403340e-02 1.0917303049002701e-02
      3.7134561327651916e-03 -2.9080641340791056e-03
      1.4677617649288361e-03 4.2306291145485387e-03
      -1.2319541147309877e-04 3.4713544793941245e-03
      2.8026997325151098e-03 -1.6889214471264083e-03
      3.6984876877215480e-03 1.5671475053607305e-03
      5.6895151647757538e-03 7.5926958823176784e-05
      -1.8868929078739178e-03 -6.5722102658398946e-03
      -3.3469297157222890e-03 6.9551132755123462e-03
      -1.0686797586567881e-02 -1.1818113764684744e-04
      -3.9532777177049101e-03 -8.5157308742930555e-03
      -4.1501916681182917e-03 -1.0957814807408464e-02
      2.5059830567093614e-03 1.2371882989213018e-02
      9.9661456492193858e-03 -5.8935250145455732e-03
      -1.9625248967165294e-03 3.9885804868031180e-03
      5.4489298857385675e-03 3.7470360878459445e-03
      -6.2680203981405761e-03 -1.0042698544450000e-02
      8.9631234989274375e-03 -1.4524729866465668e-02
      7.6883426690601414e-03 5.1701653623407841e-03
      -5.8436222929728297e-03 -5.9717980656550521e-03
      -1.1118138156554670e-02 3.8225848469311471e-03
      -3.1190490324056537e-03 -6.0984661149497054e-03
      1.1671944591842535e-02 4.2549218448464741e-03
      7.1753214451201102e-03 -7.8218257415677093e-03
      -3.2947222627199872e-03 1.4760227167420790e-02
      -1.1467576857248663e-02 -1.3631200932510006e-02
      4.2930344802478705e-04 -6.5049480167570957e-03
      1.4626615394943486e-03 -4.1398786588402875e-03
      -9.1208783212675271e-04 2.0652867161551603e-03
      -2.4963619002621229e-04 -5.6890626838109574e-03
      4.8081188172594868e-03 1.1992695562289289e-02
      -1.3454720912292478e-02 -1.3157965863395636e-03
      6.1523260842392220e-03 1.0640174147086907e-02
      1.4413878285434636e-03 1.3292847075351454e-02
      -1.2903374169169462e-02 1.3013484643999717e-02
      -9.1378585220982193e-03 -1.7762303653766100e-03
      2.5442804271906430e-03 -4.1159638709445962e-03
      -8.6126109119818994e-03 4.7432605561181975e-03
      -7.1039277249801249e-03 7.1612647700264303e-03
      -6.0242513782446210e-03 1.4828589392379059e-03
      6.5131980296434500e-04 7.7091383554230460e-03
      -1.1339387886442768e-02 1.0035271055298356e-02
      -8.8431591534808979e-03 -1.0241935507744345e-02
      -1.2282924739550553e-03 2.3347534205477188e-03
      -1.2665581982733792e-02 -7.4545079773340520e-04
      1.1075845951789339e-02 5.8926534697492329e-03
      -1.2315300762222255e-02 3.6200484629271040e-03
      -7.9204498977119859e-03 -9.3683831051206436e-04
      1.8088799226136172e-03 3.0228448766902024e-03
      8.1416747028509387e-03 -1.0147760901178182e-03
      -6.3046831751114455e-03 -7.8937009211695244e-03
      -6.4138359595761934e-04 -1.0370185010288037e-02
      -2.9116811505519357e-03 -1.4288845818711817e-02
      2.4254040796895674e-03 6.1973266911482441e-03
      -1.2104337195295516e-02 -1.1978343754306909e-02
      -1.3559487729060710e-02 9.0598816628531375e-03
      -1.8710690570958582e-03 -5.0588824586067418e-03
      -1.0376786626076535e-02 5.1411152065360460e-03
      6.4107857332360001e-03 -1.1057698396384406e-02
      -1.0580505286407254e-02 -5.3672593956032725e-03
      4.3664960747493917e-03 3.2750925931310302e-03
      -8.0797997108755671e-03 3.7708041006864349e-03
      1.2866203418938026e-02 3.5499168649527377e-03
      -6.3624657092971968e-03 -8.9044561934476085e-03
      4.6550797055607534e-03 2.5039897765987370e-03
      1.2125308466870160e-02 -5.6754390686170027e-03
      -7.3129343201960130e-03 -1.0203926161687594e-02
      1.1938538393517252e-03 -5.2548655711937677e-03
      1.8024681178231437e-04 -2.3860633829972835e-03
      -4.5034569681248150e-03 -6.1708092176369321e-03
      1.4097523793057338e-02 3.5421986807656711e-03
      -6.4619439424197685e-04 -5.6138643606701202e-03
      8.0806029245754311e-03 -1.3419301523032726e-02
      -3.6905787454484308e-03 -2.1730106280505946e-03
      -8.4432024437489130e-03 6.4959731274261937e-04
      7.0896007965831056e-04 -5.5990046582250355e-03
      8.8591995377715737e-03 9.1358320030659381e-03
      -1.2066106336889844e-02 5.7864829388667004e-03
      -1.0995981520763337e-02 -1.1633271357161126e-02
      -1.0428317138740702e-02 -1.3550385271174236e-02
      7.8386677318955933e-03 -8.1869017611023026e-03
      5.6417560992831177e-03 1.4726461392240320e-02
      2.7166185980695766e-03 1.0199281554410978e-02
      8.8901229470528132e-03 -1.3509722766613982e-02
      -3.3915252978276339e-03 1.3082835747584665e-02
      4.0881873355193190e-03 -3.2173530311371996e-03
      1.2569176756849442e-02 -5.5630660963295340e-03
      6.1955792642988429e-03 -3.9091741709762571e-03
      3.4498461713707422e-03 4.6880712140826980e-03
      -2.3222465878152713e-03 1.1074306206031547e-02
      -1.1997073660618755e-02 2.6011982305271112e-03
      -2.1849961498304868e-03 -1.1612961146384734e-02
      6.4207110817833162e-03 -5.7586099023604134e-03
      -2.9209377085128319e-03 1.0125377304605747e-02
      -2.5046598875418540e-03 -1.2927445868258343e-02
      1.3716730140384012e-03 1.1535047519205645e-02
      8.0103525121287839e-03 -1.2583310906964549e-02
      -1.3507034712350293e-02 5.6838979066612177e-03
      1.2346496083366161e-02 4.9053793576122129e-03
      7.2564783904930756e-03 -7.1083565313834378e-03
      1.0913022479810772e-02 -2.1781188121655940e-04
      7.8949245179521736e-03 -9.6613148064921706e-03
      -1.1545125732492920e-02 -3.8055449779142566e-03
      -5.3896116018905147e-03 -7.4339576373290668e-03
      1.3312126329616465e-02 -4.5148828506908030e-03
      1.0049233171532466e-02 -2.6997366583873597e-03
      -5.2075693637880140e-03 8.8296759651695957e-03
      5.9616937033868155e-03 7.7753531258795503e-03
      6.9775924068486072e-03 -1.1789975765508869e-02
      -1.2762376027716744e-02 4.2189154364263449e-03
      8.7739822856491194e-04 1.7308311996904540e-04
      -4.8343281301920747e-03 7.0260889308726383e-03
      -4.9950980802774487e-03 1.1018309640012190e-02
      -2.4763638158384668e-03 1.2853465689378037e-03
      -1.0980974030449774e-02 5.1031555434158035e-03
      -1.1760373456570283e-02 -7.1182588873842136e-03
      1.2280257443215334e-02 -1.2162989469022861e-02
      1.2311780222332003e-02 1.0174930818235289e-02
      8.0331059731287222e-03 -9.2857341334287545e-03
      5.1147566205076945e-03 -1.2815836973795279e-02
      8.5904525367217974e-03 1.4084559049131161e-02
      5.8793286727502397e-03 2.0200082430920211e-03
      -6.7048828261605823e-03 -9.2412278544432482e-03
      -1.3025222754860018e-02 2.5392750437335568e-03
      -9.4557220393424474e-03 1.3261817242877652e-02
      9.1246991153243352e-03 -1.3006324879611396e-02
      -1.0180964848479638e-02 -5.0773923485668126e-03
      -3.6153854498851188e-03 4.8063338635602670e-03
      1.4052744670588927e-02 -1.4966864543735399e-02
      -1.1544823406517387e-03 3.3899618228135156e-03
      3.4824900096993672e-04 -8.5344588253573016e-03
      4.2171901230407419e-04 -1.3629017678425386e-02
      8.5093195549611443e-03 -5.6826624810885724e-03
      9.8330433478268711e-03 -5.1947914601304073e-04
      7.0753466557903341e-04 9.4355832124248720e-03
      9.7986084172879389e-03 2.7478454716840816e-03
      -1.1043210427603006e-02 -1.0993234327476899e-02
      9.7151383800832963e-03 1.3099101865535151e-02
      -1.9755486526864137e-03 -4.9371435660751787e-03
      -1.1298836489373380e-02 -1.1339349989509494e-02
      2.7882547821740712e-03 -2.5276063164192510e-03
      -2.3664018689521713e-03 -1.1046202908810027e-02
      7.4128614607355354e-03 6.9820424199024071e-03
      -1.3630337646661739e-02 2.4313872170420277e-03
      -1.2329094192405047e-02 -5.6871320836262094e-03
      -1.2472555132018871e-02 -4.4284498702720288e-04
      1.1405061470343220e-02 -9.0534830641440141e-03
      3.9932720253590661e-04 -6.8969963399669685e-03
      -1.0181579586348362e-02 -3.0555389032978922e-03
      1.1109452329933812e-02 -2.5043118627809660e-03
      1.0240589879587881e-02 -4.6636826020793080e-03
      1.1603968300368589e-02 2.2415855442988642e-03
      -2.1018794847644257e-03 3.0805700109544820e-03
      6.7037771014637690e-03 2.7746293620459260e-03
      8.1596577213128418e-03 6.6021154196014694e-03
      1.0496494037483789e-02 1.7268702643517568e-03
      1.2269935268797287e-02 7.0378357841915772e-03
      -1.1648047634878467e-02 2.7415822660423351e-03
      1.2296386778681490e-02 -1.1101944615516560e-02
      -1.1341756038313097e-02 -9.6066302174338761e-03
      5.6684360235730816e-03 1.3677019726642738e-02
      -8.1853300015141326e-04 1.2305303709647169e-02
      1.2752211833693449e-02 9.4545660406442095e-03
      8.2242952347811159e-03 -2.9886046787748672e-03
      -1.1346850651340836e-02 -5.7449439708678130e-03
      1.4082672746856401e-02 -1.5319529067777569e-03
      -1.4333422567659265e-02 4.3061030452685315e-03
      1.2541818978008643e-02 -4.3214566996071868e-03
      -1.2401298039603867e-02 -1.0833458978063804e-02
      5.8428364192586743e-03 9.5557577555752202e-03
      -1.6257781168360944e-03 -9.1771244441626581e-03
      -7.7460714109192381e-03 -4.9257147262500890e-03
      -1.2441653124019262e-02 1.1529630147551307e-02
      2.5440512030915838e-03 -5.7758576636998751e-03
      -1.0941231888432958e-02 9.9691082567387092e-03
      -1.0137852982737148e-02 -5.8511735130987730e-03
      5.0598255676895399e-05 -9.4173925904878671e-03
      -6.2858187401351794e-04 4.2561708471430164e-03
      3.6366075067937359e-03 1.2250037317350236e-02
      9.4701631300384958e-03 -1.7758752982083906e-03
      2.6716934371371487e-03 -3.9982515845522646e-03
      9.2628808175225334e-03 -2.7234728581928881e-03
      -8.8506658893094305e-03 -3.8184274971537276e-04
      -7.1524185960992175e-03 -1.4829772550577651e-02
      1.1069490399453350e-02 7.2417056638912373e-03
      6.7453039522714971e-03 -2.1989805234416031e-03
      2.6074574992345730e-03 1.4985307200802756e-02
      -8.2408387320683310e-04 -6.9157564023730215e-03
      -3.2214902436677293e-03 -1.1624488288576306e-02
      -1.3387440076583991e-02 1.0666151754938879e-02
      -6.3351163023461681e-03 -1.3536478957180152e-02
      2.6852894147239431e-03 -3.4662728034890572e-03
      1.0135957960516813e-02 -1.0483609436696474e-02
      -1.1507638815119287e-02 -8.0388336494618285e-03
      -2.8797204791257999e-03 -8.9175476837089311e-03
      7.8671908504403323e-03 -4.2015942365596541e-03
      -5.2662062656618179e-03 1.2650597956894253e-02
      1.1119038018655189e-03 -1.3542151491460637e-02
      -4.4290200923839456e-03 1.1685825594094084e-03
      5.4794534153408412e-03 -6.7812123084620857e-03
      -6.4960481340272285e-03 -7.8904118212814508e-03
      -9.9353484606892906e-03 1.0936094875972064e-02
      -8.4554651401082762e-03 -1.4263066268358111e-02
      -6.0490484533823928e-03 -1.1658350136169655e-02
      8.4818151014702196e-03 -1.1084892273964166e-03
      -9.6601626300389619e-03 -1.0888401222534864e-03
      4.0092556557331707e-03 -1.4255313199703537e-02
      2.0674725791832312e-03 -1.0413394553082234e-02
      2.3369429339942897e-03 -4.9350570436554580e-04
      -6.8937405694699232e-03 1.0165144185453331e-02
      -9.3943854204145815e-03 -1.3315556062846487e-03
      -1.0575512175922917e-02 9.4067092388520190e-03
      7.9331759198222386e-04 -1.0801610918268601e-02
      -1.4348866163446746e-02 7.8867828363290426e-03
      8.3842193591145003e-03 -6.0971278884649972e-04
      6.1336596129674134e-03 -9.0066565643618368e-03
      -1.4483837295441076e-02 -1.3465306575888547e-02
      -7.1329654849056848e-03 1.2431248150900145e-02
      1.2081310452348020e-02 -6.1884257799341607e-03
      5.3036349230473588e-04 -6.7140617554969370e-03
      -2.7841182680232637e-03 1.2915085699199929e-02
      -6.8970403761688844e-03 1.0197387540544577e-02
      -1.0261935614706581e-02 1.3756021243111568e-02
      -8.1923162924137408e-04 1.3454774859785738e-02
      -1.7241973914169260e-03 6.3714502742751424e-03
      -1.2614561318744751e-02 -6.2330216168762342e-03
      8.6285976258479846e-03 1.2038013993425955e-02
      -1.0695530974914342e-02 -9.7065488996853060e-03
      -1.0459669360216077e-02 -8.1467584318002453e-03
      5.9466272262017716e-04 -7.6143101437226657e-03
      -7.8387828144113048e-03 1.1882206784274114e-02
      -5.3943731600974128e-03 3.0202395780357452e-03
      -1.1291787743817248e-02 3.3136597582617794e-03
      1.0283473197582315e-02 -3.8021325340064078e-03
      9.7168479598884992e-03 -1.5358539077585133e-03
      9.6065772107895037e-03 -4.1635247302339818e-03
      -2.6392570781692925e-03 6.2143156074438025e-03
      -2.1716216660910195e-03 9.0007972360068560e-03
      1.1904174007271709e-03 -4.6167807879693469e-03
      2.1817435940594439e-03 8.4560940863837794e-03
      -1.2866746313016768e-03 -5.8159090480550764e-04
      -7.4158680815810781e-05 -8.9607763547122112e-03
      -2.0226483914208455e-03 -2.8022406441752571e-03
      -1.0934864342123351e-02 1.1289155647447972e-02
      -1.3608433045273580e-02 -1.3831433296640173e-02
      2.1205345516789611e-03 -9.2801672102387489e-03
      1.2276538430581196e-02 -7.5805253331649560e-03
      1.2264814939739098e-02 5.6076248285327115e-03
      -1.0116992398807189e-02 7.4826783537327570e-03
      -8.7939929401258127e-03 -1.2446071537021999e-02
      7.8607302758818367e-04 1.0411668383908008e-02
      7.7866201780105752e-03 2.9832468038846391e-03
      -1.1885647178268436e-02 -9.9243672856562052e-03
      7.0947714715670568e-03 2.8783545749535063e-03
      -2.4982001601124922e-03 -5.2336739926661683e-03
      3.5104294428148892e-03 -1.0894880906643150e-02
      -9.2879893301530576e-03 6.9647586239015707e-03
      1.3167225104010085e-02 -1.2519023288256546e-02
      5.1560932984559297e-03 -4.8875965689808704e-03
      2.7733727160023074e-03 -1.0026294617628018e-02
      9.6777399559543655e-03 1.0862535974929796e-02
      4.4565731200402036e-03 -1.0853225208989455e-02
      -1.0213064242683055e-02 1.3959870065897764e-02
      3.3676337314307745e-03 1.8927820988754564e-03
      6.7861252742948148e-03 -1.2847286429484142e-02
      6.4705573360614756e-03 1.2453452471052175e-02
      -9.6559740209244051e-04 -4.4746564359777760e-03
      -8.0575202598807075e-03 2.0974820092288671e-03
      -5.6817280965947708e-03 1.3384885604866555e-02
      -8.2262861823494092e-03 -5.4382146658550935e-03
      -1.3639144216730301e-02 7.9500733735610399e-03
      4.1969477373150176e-03 6.2862885998305629e-03
      -2.1517946555052779e-03 -5.0190691075059513e-03
      9.5656366501560355e-03 2.4550168687992834e-03
      2.4057838149914614e-03 7.3852547008259042e-03
      6.6975126440027297e-03 1.2478638783956272e-02
      -9.4606161276696073e-03 1.3207118526668978e-03
      -6.9589067584549854e-03 6.3020534098509606e-03
      1.2427146593359400e-02 -1.1567243785016331e-02
      -7.1019741064708344e-03 -1.1148367102036605e-03
      -1.2825990044018529e-02 -1.4801290153108767e-02
      -1.2354895963291406e-03 7.9046721167890018e-03
      -5.5951731946655651e-03 8.2316494605084870e-04
      6.8769207129771867e-03 5.3996505030661232e-03
      -7.6245296610451836e-03 -8.2945652923143483e-03
      7.7224383283704418e-03 4.1668059608668452e-04
      1.3919855808432030e-02 1.3289718151968714e-02
      -1.2625536026892129e-02 -1.5082120203530084e-03
      7.0579785609098666e-03 1.1464923239670830e-02
      3.4327597845327839e-03 2.9366284618847181e-03
      6.7477162966776147e-03 9.9239243815286461e-04
      3.2727190546406977e-03 -6.6712036460068683e-03
      4.4392506809826015e-03 1.9652891537070183e-03
      4.0921044205653387e-03 -8.7700370244812170e-03
      6.9769303881572981e-03 3.5199423318508952e-03
      -8.7571707831382625e-03 -1.0120697246575718e-02
      6.0986772149599555e-03 -1.3554524446636117e-02
      1.2490808484350276e-02 1.2196405467104265e-02
      -6.7644804878349675e-03 -1.9928449435923710e-03
      -7.2540518153924143e-03 -1.2372900330410819e-02
      -6.0700030921931498e-03 -6.7765697337342429e-04
      -3.6120914548408130e-04 1.1115014999633759e-02
      1.0114648371271084e-02 8.2396400517542531e-03
      4.7521387741130310e-03 1.2368717325824383e-02
      -8.8826625398344596e-03 -1.2781939525594499e-02
      1.1908427793966270e-02 -8.6094989912889575e-04
      -1.5394055462994693e-04 -1.0751519595067699e-02
      -7.6168701449328474e-03 1.0893058317157744e-03
      5.6299717678979276e-03 1.5335209414674267e-04
      -2.8579937392944507e-04 1.5364185161892525e-03
      9.2365258071269735e-03 -7.5363652405422525e-03
      -9.9737510108059077e-03 1.3324985476579411e-02
      -1.6165520465009737e-03 4.1268208378535762e-03
      1.3414754431087110e-02 9.6544850221668148e-04
      -5.6176323414380844e-03 8.7180491115318899e-03
      -5.9695010228216702e-03 4.3632354493363104e-03
      1.1032808343002588e-02 2.3300887409977542e-03
      8.0579782336868510e-04 5.2755961389740281e-03
      1.0194275959428524e-03 -9.0062529253958305e-03
      9.8393082491776071e-03 -5.2285691431135902e-03
      8.7635594875346712e-03 -9.6199633869558827e-03
      5.4521230895771648e-03 -1.2192707240647180e-02
      -1.1577046242562285e-02 -4.5164228322542898e-03
      -7.1191715219207632e-03 -1.2384854024920554e-02
      -5.7191476547500076e-03 1.2906928349133215e-02
      2.9821889264546346e-04 1.1207879197323783e-02
      8.1043049555298624e-04 -9.5296439641753845e-03
      -1.3173146867209579e-02 1.2033122944641372e-02
      -9.2248788057854875e-03 1.4529863743472952e-02
      -3.9001322586781320e-04 7.8552619981306776e-03
      1.3586182266555539e-02 1.1294111868188655e-02
      5.8336038397350867e-03 8.2811766199037667e-03
      1.0012668710299008e-02 -1.0503327344462585e-02
      1.8980079370229733e-03 9.2425963219503176e-03
      -9.2087621759778006e-03 2.5908182838922282e-03
      1.5955742286469377e-03 -3.6841502651102551e-03
      9.9789031630686965e-03 4.6674685534810606e-03
      9.0014309228311235e-03 1.0495934287274820e-02
      -7.9112061278542433e-03 -8.1142583527599940e-03
      -5.5921044300130045e-04 1.3270449986086607e-03
      -1.2503510185153053e-02 -2.0120073288157573e-03
      3.0471237753491924e-04 -2.5297693336616476e-03
      -6.5561907574583382e-03 1.0118224134213302e-02
      1.4878169735528062e-02 3.2064641180652114e-05
      -9.2703911396447309e-03 4.2087958993703252e-03
      1.0018514115049231e-02 -5.5639876261205749e-03
      1.0119663313969088e-02 -3.1691512134719296e-03
      -1.0892635021235390e-02 1.3785534352121794e-02
      7.8614762122006417e-03 1.9316778482794197e-03
      -1.3540574700239389e-02 1.0707774144565637e-02
      -2.1895796780934014e-03 -1.2762284582854578e-02
      -2.2809428415024595e-03 -1.2644511446955633e-02
      1.2168264370826466e-03 -1.1680587807989277e-02
      -1.4387908083974268e-02 3.8713536383414232e-03
      -1.2663292918454508e-02 -9.1801663789273704e-03
      -5.5898673888649271e-04 -4.7896436775080329e-03
      9.8776941273360248e-03 -4.2424639820950565e-03
      4.2373368564746364e-03 1.1317790790392211e-02
      8.5810141545245751e-03 -8.9122968722719204e-04
      3.5488190571474495e-03 -8.0106716184397565e-03
      1.0530482448427480e-02 -1.1764775639428038e-02
      -1.8122513459213822e-03 1.4399114505289830e-02
      -3.2378181849049845e-04 9.4537404838041274e-03
      3.5980812324401760e-03 -1.8084417148235402e-03
      3.7221056443176334e-03 2.2102517997070951e-03
      -1.0570200511781581e-02 1.2714195149310466e-02
      7.0354632434780039e-03 1.8942005030017448e-03
      7.9436706504853877e-03 -7.4824367518446606e-03
      -4.9905130898569719e-03 -3.6850136530806486e-03
      -8.0106422349902860e-03 3.2522788242443880e-03
      -2.6593357388052900e-03 -1.1398887847411701e-02
      -9.5419676818338118e-03 -1.0947001814518298e-02
      -1.2074121178868896e-02 4.6439691724208514e-03
      1.3827511123790484e-02 1.4298639794154584e-02
      1.2118123555119112e-02 2.9887239776086915e-03
      6.8175233666562278e-03 -3.9578520713145797e-03
      9.6231315502536621e-03 -1.3655401587334429e-02
      9.7284403141697454e-03 6.7242474367320802e-03
      1.0668718028740981e-02 6.7778836486822478e-03
      5.6631066328780141e-03 1.2278603132949361e-02
      -8.6918427485344358e-03 9.5544457330691973e-03
      -5.9160197463380892e-03 1.0407504609686712e-02
      -7.5293342246269017e-03 1.2976346685527359e-02
      1.2040117125793750e-02 -4.2123014074598262e-03
      -2.3455271382171825e-03 -6.0026919030884644e-03
      -8.0742887677380630e-03 5.0388468173198191e-03
      -9.2876538584160152e-03 1.1713512745258330e-02
      8.6944611097731703e-03 6.8662553721858467e-04
      -8.1879103070188891e-03 2.1624375942466837e-03
      1.5994651802483193e-03 -1.3557650142094944e-03
      9.6581914775981158e-04 2.8584241180525951e-03
      -3.5789110851043473e-03 3.4131034431630425e-03
      2.2809653864989386e-03 6.3943870905399849e-03
      -8.9435734332430350e-03 -1.3074072239892681e-02
      9.9588975707329240e-03 2.7543927747418081e-03
      4.0379845947027624e-03 -1.4325098811926460e-02
      2.5514244976507482e-04 -6.3033029887970028e-03
      1.0439815338571499e-02 1.0428070096519601e-02
      6.4479511154320124e-03 1.3701741297557600e-03
      5.3028669229049563e-03 9.8442827997996304e-03
      7.6371653646671719e-03 2.5801837019249038e-03
      1.2173809199317549e-02 -1.0140323986378935e-02
      -6.0482562269379044e-03 8.2886659700395875e-03
      -1.4011045363137398e-02 7.7597911488813684e-03
      -7.3706905594784836e-03 6.3534460336108021e-03
      -1.7783997265142220e-05 -1.3538236487702301e-02
      -4.4341214183773441e-03 -4.0108185101543105e-03
      -8.2336369431765914e-03 -6.2769411286314504e-03
      -8.7575116773733440e-03 -1.0404265767645405e-02
      2.2661352039828977e-03 -1.1612843443102518e-02
      1.4601899702693929e-02 1.6795076776580445e-04
      3.5179407761423763e-03 -8.2136434748389612e-03
      3.8992710649833409e-03 -6.3668178179783876e-03
      -7.3545525208779609e-03 -1.4751245183265546e-02
      -1.2552590715796008e-02 -1.1395910241075802e-02
      1.2102659872686553e-02 -5.9681679134941917e-03
      3.7701458798135440e-03 2.5461789188076802e-03
      -4.1277356035046472e-04 1.1337330999782656e-02
      -1.2845021615764531e-02 7.1098407198622853e-03
      -1.0320215090684540e-02 -5.8044844135833207e-03
      1.2500480146388236e-02 -5.9801244751744552e-03
      -1.1374063059521589e-02 1.2905067172551065e-02
      1.2811589159819189e-02 -4.5989172132248745e-03
      2.9797548791620759e-03 -1.6202335092362458e-03
      1.0622319166076042e-02 1.3090188559287494e-02
      8.8634845454796003e-03 -3.7646504585568522e-03
      1.0993508687496462e-02 -8.2529251489845568e-03
      1.0571861651548865e-02 4.3650039425478654e-03
      5.5507245898139511e-03 1.0710555228380551e-02
      1.7526426532235276e-03 1.1532055088320253e-02
      1.3265944215190685e-02 8.8994334104661663e-03
      -1.0405328974228039e-02 9.6544499419073913e-03
      8.3076311750439162e-03 9.1897459409965281e-03
      1.7680833569867307e-03 1.3112201196998231e-02
      -5.4626124405114567e-03 4.4827612889871511e-03
      -8.4256868328883832e-03 -5.1463429855123427e-03
      5.3731007572758154e-03 -4.2145916081937074e-03
      8.3130898101720242e-03 -9.6257042197716042e-03
      -1.3485651697203832e-02 -1.0440528988296519e-02
      -8.7569802066600113e-03 -2.3093320625144033e-03
      -1.0281048598357370e-02 -5.6964343371918510e-03
      -6.0026658469739102e-03 -8.1164364004101281e-03
      5.6439659968954324e-03 -8.6602026423386602e-04
      3.5079952517281783e-04 9.6706637678976616e-03
      8.1792977197767576e-03 -1.0105505345148015e-02
      -1.7774863327532409e-04 -1.4412320576857327e-02
      1.2124520245372930e-02 7.7253177428184489e-03
      -8.7360894647039774e-03 -7.2464669673429341e-03
      -1.6283994869412993e-03 5.4595644831276872e-03
      8.7493686227891575e-03 1.3334157401601231e-02
      -6.3606574783092364e-03 1.7356908054083124e-04
      9.7286116206118656e-03 3.1922371145727882e-04
      9.3446251592540497e-03 -1.0855097713783105e-02
      1.4182005789307174e-02 -9.3912247742702314e-03
      8.2683710837680099e-03 -7.9053224331893778e-03
      -6.1285547964471526e-03 1.0808603099009096e-02
      -1.0665813831956009e-02 -8.7200442641650819e-03
      -1.0138698706243348e-02 -1.1960305931894254e-02
      7.6170091578230629e-03 4.7507714000312356e-03
      8.5395770006807606e-03 -8.6691875096376915e-03
      -5.1122283177150660e-03 -1.0531936167552233e-02
      9.4410471496883790e-03 8.6057179229676595e-03
      8.7930029455836004e-03 8.3770845370536250e-04
      1.1408173396781910e-02 1.0557536054867509e-02
      5.4947431403877924e-03 -2.9048141200680127e-03
      1.1197139355381490e-02 -1.2929366948675190e-02
      -1.0625296589949243e-02 -5.0407717640489720e-03
      1.3304735315362921e-02 -1.0044436314867410e-02
      2.8584308904545654e-04 -5.0055356691485549e-04
      9.3028248563359808e-03 -1.0135709563183073e-02
      -4.5215769049034068e-03 -1.1645998983975657e-02
      -9.0433339252338251e-04 7.6351881799613421e-03
      6.8383777139306955e-03 -8.5791906693193833e-03
      -5.4400131469718232e-03 9.4305658377644098e-04
      -7.2791986637507841e-03 1.3125722112339311e-02
      -5.2100927249488132e-03 1.3676466451408095e-02
      -1.8567312286793046e-03 1.1988418569652127e-02
      -9.5059542917206464e-03 -4.5150695661047239e-03
      -6.2908416734038415e-03 6.7484786192109963e-03
      1.1627490487618297e-02 1.8160843225281610e-03
      -3.5882714620225336e-03 -1.8315434123692849e-03
      -2.9357559844723734e-03 1.4235835166087612e-03
      -5.0762860519663611e-03 5.1081676011699943e-03
      -6.5856429564294010e-03 4.8048151892529593e-03
      9.7807891383945179e-03 9.5579029484879289e-03
      8.1492220432013533e-03 7.7576987061493156e-03
      6.5206789651962981e-03 -7.2987315296245787e-03
      8.6419820762747637e-03 5.3947638874173543e-03
      -3.1893859453977339e-03 -3.8881287801730883e-03
      1.0657403114167904e-02 2.6670940209270896e-03
      -2.8637621485098790e-03 -9.0104447269609110e-03
      -7.6520178964752854e-04 -3.0832201021807342e-03
      -5.3014166696262396e-03 1.7289511501766865e-03
      9.4722012500352282e-03 6.4792654320630404e-03
      -2.7112851602431598e-03 -1.0554231243116080e-05
      4.3665085411389269e-03 4.8002039130580227e-03
      7.3765110889272151e-03 -1.3566760849948723e-02
      3.9335061423719008e-04 -4.0271131269663703e-03
      -1.0496117571976268e-02 -1.2726796193418341e-02
      2.8292243785780192e-03 -8.3367035948692537e-03
      -7.7617713174840154e-03 6.5352089679379891e-03
      9.4235322174641527e-03 1.3546481339942632e-02
      2.1319139509935520e-04 1.3159072519555528e-02
      -5.7006304620768533e-03 -9.1345957660535465e-04
      -1.2232865615132505e-02 -5.9425946708952762e-04
      -9.3302280919557844e-03 3.8183838446794929e-03
      1.0932442796288471e-02 -5.1041484334699615e-03
      6.2220097946255352e-03 1.3229001116952161e-03
      -1.0297585995669755e-03 -1.1008417943658179e-02
      -9.3044302387698744e-03 1.0094812722830604e-02
      7.5954966485927786e-03 -9.8231017656186161e-03
      7.7584267713831376e-03 -8.6282009747654584e-03
      -9.4516609336610328e-03 -5.3813086299242660e-03
      -1.4480420588173257e-03 -8.2462541400051843e-03
      -8.2542503477623652e-03 5.8518676082571870e-03
      3.7011418027533176e-03 9.9398787202589819e-03
      -8.9739143991151727e-03 -2.6631620588257786e-04
      -4.8504920727974465e-03 -1.4440540654678610e-02
      2.2075315196009096e-03 4.4370100423593798e-03
      1.0227244475330704e-02 5.4613263940673507e-03
      1.3060253106586915e-02 9.2519457043138274e-04
      1.2692696314992253e-02 -1.2184621514261041e-02
      -8.1292479071873856e-04 -9.4453567114664207e-03
      4.4290037386101200e-04 1.4386892920654150e-02
      3.8109529296402847e-03 1.1492206642867481e-02
      -3.8100525014357028e-03 -1.3362518126935384e-02
      6.6365314262084038e-03 8.8888294312795876e-03
      -1.1332425308714880e-02 1.2519756039903088e-02
      8.3382040978612938e-03 8.0301379013348415e-03
      -3.7505521780099487e-03 1.2558637349493171e-02
      2.8757184368695065e-03 1.0861348707765898e-02
      3.1418997209617456e-05 -7.1102574687176697e-03
      -3.0982645242082647e-04 -4.6305498687368206e-03
      -4.2770326293065063e-03 -1.4409703775577155e-03
      1.2072375107678113e-04 3.9454570316052292e-03
      5.3044034125349065e-03 -7.9211054595277914e-04
      -2.1701943042324308e-03 9.1716178653189484e-03
      -1.1025065187038096e-02 4.1031339645326795e-03
      -5.6674107626170428e-03 -8.9268052653431037e-04
      5.7869688512189000e-03 9.6426912380400721e-03
      -1.2551329188188175e-02 1.1815781002485572e-02
      3.6932324519927747e-03 -5.6374834991049731e-03
      -8.2993082091448629e-03 1.0388431009216645e-02
      -9.9909167718704589e-03 -7.7835801846866011e-03
      -7.9269718212279239e-03 -4.4355159570665745e-03
      6.2318168758847348e-03 -1.6277011751857713e-03
      -1.7339535186781730e-03 1.9059837811610414e-03
      7.7008816207738747e-03 -1.0703560238740705e-02
      8.3819942854440107e-03 1.1190753497208494e-02
      2.5842336038778032e-03 1.5953105336105576e-04
      -1.0220727041218744e-02 -9.6385554702076350e-03
      1.1629965588684122e-03 -9.2975315486268275e-03
      -1.3286319809444114e-02 -3.6301191984427646e-03
      1.1283065335450072e-02 1.3805659563141599e-03
      -1.1549007287537341e-02 -3.9565541391014267e-03
      -7.4714362895759497e-03 -1.4419096958329245e-02
      -6.5616099955050199e-03 1.0333663080066577e-02
      -2.8108358196574836e-03 -9.0148509424635478e-03
      -3.9706841354017410e-04 1.2908493301513120e-02
      1.0674721256624000e-02 -5.0775806869943554e-03
      -1.1190831813504739e-02 2.1673806113302087e-05
      -9.4482410527087588e-03 -3.8541929537229420e-03
      1.8263381543799065e-03 3.0853950779762738e-03
      1.0107231771744741e-02 -9.5912585562753783e-03
      1.2165018707786591e-02 -9.2493162839660786e-03
      4.0966480756309447e-03 -1.3479623172808115e-02
      -9.8704965485492159e-03 -7.8429954112634159e-03
      -1.0637402907844831e-02 -9.7781380880367797e-03
      -7.6222209523325287e-03 9.6854708939850386e-03
      -4.5316296041509538e-03 9.4177823735634644e-03
      -3.6147002214428022e-03 -2.3445629155803511e-04
      -1.2561364632011823e-02 -9.6740454021364709e-03
      -1.0532091254783476e-02 -5.4274554500752786e-03
      1.8664331669245404e-03 1.4367280460596411e-02
      2.0392148700758370e-03 -9.9412000113509574e-03
      -1.3181751438249630e-02 -1.1662550524225296e-02
      -1.0649457026472190e-02 -1.8835048121144901e-03
      3.8177616780674752e-03 -7.3013191878689777e-04
      -1.0518340281329124e-02 1.1926165455360389e-02
      -1.2141584711018517e-02 7.2098438814669494e-03
      2.9466418970132799e-03 4.8325555407678954e-03
      1.0291740327678005e-02 -9.5856740612329221e-03
      9.4518617188706060e-03 -1.1330256411489376e-02
      9.8751979575358705e-03 -1.4609186342963742e-02
      1.9280723448541939e-03 -4.6559274835642674e-03
      8.9019898382850290e-03 6.1199225176051912e-05
      1.2131687393503156e-02 8.1244970489900269e-03
      -9.5319328616918358e-03 -9.5147648871228441e-03
      -9.1356389572210938e-03 -1.4472339405916599e-03
      1.1466303042045064e-02 1.1180323134041959e-02
      7.1191637360070966e-04 -4.3242910361363353e-03
      1.5956227841523538e-03 -5.7301955996425400e-03
      4.2646391011457122e-03 8.5998524196426417e-03
      8.0167242319042330e-03 -1.1494792087010470e-02
      -1.2373110420583649e-03 9.2579031046995351e-03
      7.1908964296993946e-04 -1.0678542794242777e-02
      -1.0539665227708965e-02 9.9121636306072156e-03
      8.9770708969520094e-03 9.3629429864263061e-03
      -6.0891746908641499e-03 1.2635805861525589e-02
      -1.2374672763674753e-02 -4.1809850020580802e-03
      -4.1033153552459930e-03 1.0929060470769568e-02
      8.4796536608617891e-03 4.2285387592249845e-03
      8.3331269683326048e-03 3.7153315393603490e-03
      5.0231076008081595e-04 -7.3259923944945975e-03
      1.1621910116491373e-02 -2.3385975898658105e-04
      1.3236342881779748e-02 1.0325307234263453e-02
      5.6174601437093555e-04 4.0823805820984025e-03
      5.8729661560364150e-03 -6.2715870733594534e-03
      8.1170794679605307e-03 -8.0366411292511902e-03
      -3.3337098012701767e-03 -9.5571516432364206e-03
      9.1828169603607578e-03 -2.3430965281250626e-03
      1.2830045135696371e-02 1.3587072227766027e-02
      1.0129889171672488e-02 4.8578999565402859e-03
      1.9761300340635276e-03 -8.0095994637545704e-03
      1.8515777615231203e-03 -5.7610301997763668e-03
      -1.2685232863814930e-02 2.4508696170664826e-03
      -2.8561867219735150e-03 -5.0766113447969358e-03
      -5.0347910341993710e-03 7.8934411732002347e-03
      8.4750674271981182e-03 1.7323083807642078e-04
      7.7783236178374029e-03 -1.3559910413800302e-03
      9.2822306494191979e-03 1.4147989222571326e-02
      -1.3105768073009599e-02 -1.2366336172731010e-02
      -9.0636711387220691e-03 1.2102214269789359e-02
      6.7301539661729463e-03 -2.1374595634546909e-03
      3.4226670675055783e-03 -4.6358984834076744e-03
      1.5951089938503885e-03 -1.0643666832799945e-02
      -2.0164754610646567e-03 7.9579701357562829e-03
      3.3363950679420043e-03 -4.7296583047035561e-03
      -5.0423642272678605e-03 -1.0326431656802944e-02
      9.9831045256235564e-03 7.9096102229991652e-03
      1.1068151325145740e-02 8.0331093721580024e-03
      8.0078011688171375e-03 -6.1267543073063877e-03
      -7.2825010892515803e-03 5.1011956871259978e-03
      9.9046607732157163e-03 -1.4346966282753357e-03
      -8.7421315311947429e-03 -7.6410853358121599e-03
      9.7189045197395366e-03 -6.7059904770351182e-03
      3.3144895297951807e-03 3.6581027153545422e-04
      -8.0408056954999873e-03 -1.4918700862459701e-02
      4.9029531980889938e-03 -1.0722627521156684e-02
      1.3130290787987154e-03 5.8964322123075223e-03
      -8.9681307407043585e-03 9.1318971386805357e-03
      -3.5102306742941154e-03 -4.1816156134141568e-03
      7.2760868585685628e-03 -8.1869673873034496e-03
      -6.6876071364725259e-03 9.8681981627996088e-03
      1.3975199579000621e-02 4.1628696222572341e-03
      -4.0269121762660483e-03 7.4610581688193585e-04
      -6.0810869644700874e-03 -9.1631279970916142e-03
      -6.5225927806213486e-03 5.9506946884945698e-03
      8.0729284490111547e-03 8.9422037936313821e-03
      -2.1628560718812678e-03 9.1742583508534967e-03
      -6.3467743229355493e-03 6.6100248546001458e-03
      2.0885228050935493e-03 1.0879135965346802e-02
      1.6622617989444570e-03 -1.1114980976951882e-02
      1.1816718156782851e-02 7.8117072263598868e-03
      -3.0595461010467788e-03 1.0731200333590775e-02
      1.2775258004935383e-02 -9.5523943111164092e-03
      1.3838351478789786e-02 -1.4624652134456557e-03
      8.6091419718985762e-03 7.0156032534310128e-03
      2.5896156545313904e-03 -1.1257086670659307e-02
      4.3078046041077908e-03 3.0402229351999014e-03
      -7.9713634356053005e-03 8.9019178704791962e-03
      -9.0414548675998782e-03 -3.1810429591902181e-04
      -6.3572076997227517e-04 -1.3384131448780453e-02
      -3.1282995465101507e-03 9.8299583066387853e-03
      -8.8180517283941041e-03 -3.1098394155832866e-03
      -5.6616827453776853e-03 1.1118505345955310e-02
      1.4244720908189705e-02 -7.6489699689726853e-03
      -5.1703272384410982e-03 -9.6429776462743332e-03
      4.4570450630249999e-03 7.7399555017902810e-03
      1.2864132804425681e-02 -1.2960403945676477e-02
      -7.5589307801299547e-03 -6.9137324102843461e-03
      -9.0934233436359597e-03 5.6423585745803357e-04
      3.9553591807819878e-03 -1.0898862396159781e-02
      1.2414044426066009e-03 3.1112081713296326e-03
      -1.3091951815261314e-02 -8.0485921405204393e-03
      -4.7956728115167739e-03 4.9166428922504234e-03
      -9.3784040052364969e-03 -4.3326207189772377e-03
      9.6855933185208427e-03 -2.1239884380305570e-03
      1.2108311612207084e-02 -1.3018673487724529e-02
      2.9888510563126323e-03 1.1821996613994164e-02
      -1.2654841834105066e-02 9.1045096677742367e-04
      9.9740282299212012e-03 3.9525720416109860e-03
      -1.1428965891830875e-03 -1.1519936315063624e-02
      -1.0667866440182716e-03 -1.1617144158970250e-02
      4.4004638616500606e-03 1.3479478072833551e-02
      -1.0197348755980728e-02 -1.0428762908283346e-02
      1.1050946770597685e-02 -1.8465269600198878e-03
      9.3505971182314043e-03 4.5145538179802887e-03
      -5.3893646429594658e-03 2.6206218945931119e-03
      6.6956834558036544e-03 1.0900349037408372e-02
      -1.3560636786182474e-02 1.1638792150606406e-02
      -9.4559244722952976e-03 1.2834557626718429e-02
      -1.3524331383207567e-02 5.7339021104581851e-03
      1.0989612889692701e-02 1.4400105389357598e-02
      -1.1709586316795707e-02 1.2401990611632293e-02
      5.0705614986442833e-03 -4.1220378724246710e-03
      -1.4125205357662741e-02 -1.6691959678782795e-03
      -2.1550788519862762e-03 -1.8759359954294459e-03
      -5.8125751112544574e-03 2.7372590585013046e-03
      -3.0740584034869814e-03 4.5382332553350786e-03
      -9.6070739393938516e-03 -6.3315642236481679e-04
      9.6080822550163852e-03 -1.4460044954868597e-02
      -2.6389971004165732e-03 1.0685308620339626e-02
      7.0602952259553060e-03 4.8321070539438421e-04
      1.0077118857655484e-02 2.9342524605973320e-03
      -6.7084448157072535e-03 -7.7326761384877837e-03
      -4.5758566924452727e-03 -2.3694423192703504e-03
      2.4499745279050848e-03 9.1995528906012574e-03
      5.8132948686090537e-03 1.2941681610895770e-02
      5.5803905037752170e-03 1.1681704103238963e-04
      -1.1270352906726667e-03 -7.0145305074009855e-03
      -9.0748109326518871e-03 1.3466582539274288e-02
      -2.7357245177577717e-03 -1.1693346923690345e-02
      3.1021108024553027e-03 -1.3518093599660445e-02
      4.3986252396705627e-03 4.5758075177669503e-03
      -8.3465542906415828e-03 5.1089945461991644e-03
      7.7422162374857859e-03 1.2419233481276028e-02
      1.2115801009706778e-02 -1.5164977677145473e-02
      7.1995752581652060e-03 9.8792353951088763e-03
      -7.9364004596434289e-03 -6.5407454730666021e-04
      -4.1266591726472055e-04 9.4870431801347896e-03
      2.9439863515898484e-03 -7.2882501118144184e-03
      1.2820540682151235e-02 -5.9752546902052187e-03
      1.3373927459976807e-02 -7.1857228649937210e-03
      7.6169434760323977e-03 -1.3834632449575545e-02
      -9.5773727863338320e-03 1.0703506869670967e-02
      1.1297054352507803e-02 -1.5214606030875454e-02
      3.4915011309806961e-03 2.8362664245065294e-03
      1.3402629340383896e-02 -6.7617313824830929e-03
      -9.5999286797533202e-03 3.6581167532544674e-03
      1.2390271633343603e-02 -1.1116581458563637e-02
      -9.8520310075244019e-03 -1.2287988143850187e-02
      -2.9619124907600859e-03 9.3825246364190300e-03
      1.2885610837063369e-02 1.1193440353005601e-02
      -2.7049650614121424e-03 4.6559149601157453e-03
      3.6573268169837387e-03 -1.2347237504000115e-02
      1.1082646307607814e-02 6.3443047925821781e-03
      -6.0898876616894519e-03 4.6954124295140879e-03
      5.0637463907198038e-03 -5.2881552510577181e-03
      1.4390017533071583e-03 -7.1626889037323593e-03
      5.4179790479319603e-03 -8.2729056257706095e-03
      -1.2349955173103059e-03 4.0505149546542531e-03
      -6.9638180542625832e-03 -2.0583842183754079e-03
      1.3139275561778954e-02 8.7217360646220082e-03
      9.8421078729050409e-03 -1.1933773708318735e-03
      -3.9287358434040388e-05 1.0110242642419841e-02
      -1.3880316750373566e-02 7.6469999829133391e-03
      -1.1578426784636839e-02 1.3368360686449339e-02
      -2.2136420940124303e-03 2.5230493440171245e-03
      1.1957906242074746e-02 -6.8293679095891508e-03
      3.7222692855867464e-04 -1.2377800574349880e-02
      1.3625551759785604e-02 -9.8343922136525409e-03
      8.5659364308531636e-03 5.4734026204216850e-03
      1.7456947696181204e-03 -1.0644536491641614e-02
      -2.3911567571101495e-03 -3.3563758601750699e-04
      -1.0902861869728801e-02 -4.1209008991409789e-03
      8.0484932864444674e-03 3.7751516283553582e-03
      1.1716826559590270e-03 -9.6914608734477905e-03
      1.3132908517873174e-02 8.0705764864715847e-03
      -3.9214547679903679e-03 1.0603940852531123e-02
      7.9155628821076275e-03 -4.8004633209956602e-03
      -8.5371629063650078e-04 -1.3585613865217654e-03
      -3.4568916643487220e-03 -7.0970714630949183e-03
      1.4943914467473937e-02 7.6458739383703763e-03
      1.2765716254931038e-02 -5.3249024843423408e-03
      9.4167263712922368e-03 1.2738063040160105e-02
      3.2192123920970887e-03 -6.3110205544487106e-03
      9.5146285198807387e-04 -1.3583339859108623e-02
      -1.2441917017009337e-02 1.0674189000619529e-02
      1.1218460532892388e-02 4.7370932922926566e-03
      -7.9090295978518597e-03 -4.7356003738480345e-03
      -1.3151238222824550e-02 1.0810161718017054e-02
      -1.0347397079621666e-02 1.3543975583248456e-02
      -5.4781633098206391e-03 -9.2502550145009636e-03
      -1.0482523211243185e-02 6.5969080700317576e-04
      6.1434487536616905e-03 -1.0848171106635916e-03
      -3.0927397258764013e-03 1.0066483800761973e-02
      5.5823769992438153e-03 -9.4877504026398586e-03
      -8.6068196132248215e-03 -8.5626765893208438e-03
      -6.3916237723623884e-03 -1.3281761503393844e-02
      -1.2321206109324911e-02 -1.3659737577002933e-02
      1.4189540969146213e-03 -1.1379686770172140e-02
      -1.0246083670307597e-02 -3.5718854271739862e-03
      4.4644994046066783e-03 -1.1368690410006085e-02
      -4.6634970511137928e-03 -2.3952127565691397e-03
      7.0599522619670535e-03 5.1103451660886477e-03
      -8.6703367105397215e-03 1.1397996927311674e-02
      7.5142963005969234e-03 7.2526218816990548e-03
      -1.2841960200389855e-02 -1.5023517836736980e-02
      -1.3272441542183117e-02 3.3681696423347941e-03
      -5.6520805861403039e-04 1.1026048481174812e-02
      4.2662601733976513e-03 8.9162488128911659e-04
      -4.0331116551473208e-03 9.0825152614276775e-03
      7.1498663832190706e-03 1.3206889856511026e-03
      1.1184231994446155e-02 -8.8706645121851124e-03
      -9.9212191983786731e-03 3.1424433407714072e-03
      9.3671085022947759e-03 -2.2909153267285025e-03
      6.3899213462333205e-03 5.4538439962678676e-03
      -1.0314259664084828e-03 4.3434001672375778e-03
      -9.6213522308970338e-03 -4.3424240294183238e-03
      -8.6401954837999947e-03 -1.3621167608637257e-02
      -2.8913287356513548e-03 9.1813263624035100e-03
      9.3113353004192455e-03 -3.6926910169954130e-03
      -1.0210406346273430e-02 9.9577875574582350e-03
      -2.6438218140136462e-03 4.3587220419372416e-03
      -1.0708937817392371e-02 8.5267898237657014e-03
      -4.5771723004942779e-03 -6.1178650312635014e-03
      1.2938422219992462e-02 8.7119627224824248e-03
      -1.0417820502743234e-02 1.1832973747577811e-02
      -1.1732209012656071e-02 -5.1911842614472882e-04
      -1.4209814995603363e-02 -1.3458348399114556e-02
      -1.5388157531883019e-03 6.9552368639545703e-03
      -8.7099843362315882e-03 6.2720765818169303e-03
      1.5709178403323126e-04 -3.0512767407911727e-03
      1.6754728886934137e-03 9.0656834152469772e-03
      5.9257112114927666e-04 -1.2106747178441570e-02
      8.9345598993563376e-03 -7.7375818497547209e-03
      7.2781995021002903e-04 1.3189960312164755e-02
      6.9808908266789553e-03 -1.2316204323417708e-03
      2.7291297408925290e-03 -9.7210763318898990e-04
      -2.4226590035209953e-03 -2.7448628975506812e-03
      -8.7576886018695555e-03 -8.2451171475160286e-03
      -8.6361497595955107e-03 3.5721136889389745e-03
      -6.2489136663479647e-03 1.3153366387512423e-02
      5.8229906878021851e-03 5.6374872378099801e-04
      1.3896453840007284e-02 1.1545173281018433e-02
      8.3224427241422420e-03 -4.8231253242808072e-04
      -1.0842655699509166e-02 -5.3271045319269097e-03
      -1.4768426427794320e-02 -1.2389223022693721e-02
      1.6249827026521434e-03 -7.5550103991057554e-03
      2.8412554519979443e-03 -1.4392161801037454e-03
      1.1359560750794289e-02 -5.5524409273694560e-04
      8.1658425908733585e-03 8.2857980536747682e-03
      -7.3875288689315725e-03 -1.1179659315661984e-02
      6.4193157476044559e-03 9.7487946993050044e-03
      9.4277166198061309e-03 1.3856217744824602e-02
      -5.2289966426719448e-03 7.5124038572028850e-03
      -1.1792286488717486e-02 6.4235483161774205e-03
      -1.1785616645161234e-02 -7.8770234022598647e-03
      4.8664065469945766e-03 1.4972736578496588e-03
      2.1943307957990954e-03 -1.1384612663941213e-02
      6.1435978785210450e-04 -1.8444620288485378e-04
      1.0123845094793801e-02 -1.0459694106567755e-02
      3.2068206109476904e-03 -5.0601684502288753e-03
      -7.8108738644561988e-03 -3.7110986958797461e-03
      -1.3491302186608328e-02 -1.6073578455225376e-03
      -1.2858734595896718e-02 -1.0974847161629220e-02
      -1.8778615513059718e-03 -1.1950558932789603e-03
      -1.0055977954415591e-02 6.6499056975890519e-03
      5.2551129735037751e-03 6.4115345760829825e-03
      -1.3542766213643699e-02 1.0409519299023460e-02
      5.4203540762314071e-03 7.3816870660766247e-03
      3.0158977561230644e-03 -9.0329456966380759e-03
      -8.4510144459204219e-03 -3.2656781142261304e-03
      -1.2578811391633110e-02 -2.6059114264962309e-03
      7.3890171857719459e-03 2.7118653424706516e-03
      -7.4888788750993871e-03 2.9744931841599372e-03
      1.1246014187129913e-02 -3.9464621240935345e-03
      4.3158809735532400e-03 -1.1090642950784605e-02
      4.6376493612200953e-03 -1.1432585470391235e-02
      -8.5514522226337805e-03 -2.6622299514131578e-03
      -2.3841111478268900e-03 -9.9157823002148718e-03
      -4.3045962414529427e-03 5.4376634744351081e-03
      7.5873090057708478e-03 1.0670220306916086e-02
      2.0374778727945348e-03 1.3833187972668788e-02
      -4.8951294616806232e-03 -1.2424940439765792e-02
      1.2579165127033705e-02 -5.2456212744109313e-03
      -1.3626904333965279e-02 -8.8119584311277775e-03
      3.9831364312698280e-03 -9.0893393588034801e-03
      2.1785121611033346e-04 2.4834451135016897e-03
      -1.3713216588139591e-02 5.3961524550423861e-03
      -9.0160910101598924e-04 1.8773137487241925e-04
      -7.8188234835205369e-03 -6.8261070985023518e-03
      -2.3037538552852219e-03 -4.0824065525122410e-03
      5.3980824882222233e-03 1.2002112380822756e-02
      -1.3211694957001249e-03 -3.7230310616595185e-03
      1.1067411689764614e-02 6.8619868344167740e-03
      7.1993291065356449e-03 -4.0852054585341175e-03
      2.6171767350140771e-03 7.7049909430679129e-03
      -1.1005950271558236e-02 -5.8789757873140827e-03
      2.3226798161984190e-03 -1.2515954405329714e-02
      -7.5936555757405095e-03 -5.0414168445881069e-03
      -1.2573046043145705e-02 1.3770901887995412e-02
      -4.7968852968857138e-03 1.0410447517102730e-02
      -9.1547764158504599e-03 1.5964525369222061e-03
      8.6815248871491713e-03 1.3517129639130123e-02
      -1.0557073483324714e-02 5.4762972555351041e-03
      -3.2615558878557631e-03 -1.3315577227487763e-02
      3.9663995568624847e-03 1.3276390017225848e-02
      6.5197672043807095e-03 -1.1470482179839963e-02
      1.0809859789552671e-03 -1.0575870105374292e-03
      -1.2059575975664623e-02 7.3750342484340771e-03
      1.8607676773409077e-03 -1.1078433197635669e-02
      2.8328159228088747e-03 -4.2648460637549485e-03
      -1.1389737082151071e-02 -1.2982079080051296e-02
      -1.3342319373756939e-02 -9.3733667296923874e-03
      -5.7484696291893065e-03 1.0819404153498028e-02
      -1.3227005403659160e-02 3.5391658978921703e-03
      -3.4494665251560501e-03 -2.1453447167189138e-03
      7.2362514761857236e-03 5.6805271073498784e-03
      7.9179113755390891e-03 2.5175249203442068e-03
      -2.1366754220366185e-03 1.0090936430567615e-02
      -1.1212280672457685e-02 1.8852709399174499e-03
      -1.1431192552102891e-02 7.6240459287404468e-03
      -7.1446959792734882e-03 -9.2485404429255378e-03
      -6.0331815704009672e-03 7.7803903659084163e-03
      1.2968543306287507e-02 1.1381548149641664e-02
      5.9792313163794875e-03 -7.2704843956795853e-03
      -1.1179933830956258e-02 3.5143992868538264e-03
      -5.6277288197391093e-03 2.5089011040014850e-03
      6.7181428414672482e-03 6.1193208231238091e-04
      -1.2771450824060507e-02 1.3088277902230895e-02
      4.0981439057819142e-03 -9.7600209300338081e-03
      -1.0716572724033223e-02 1.4280841001806434e-02
      1.2457216346050386e-02 -1.1568491136596174e-02
      -2.9546727768775859e-03 -8.1489520548281031e-03
      1.1723595173234238e-02 -7.9818785965796325e-03
      -4.7486015513000159e-03 1.3031060466626805e-02
      2.8181369119441996e-03 9.2948246140580563e-03
      -3.6806701688363061e-03 -9.3709394420757341e-04
      -6.4040471286537252e-03 1.1970004189543474e-02
      -4.2016213603031398e-03 -2.5667547647565828e-03
      7.9119060392251594e-03 1.1445406023752163e-02
      -9.3713625767351174e-03 -1.3395443508325968e-02
      1.2437370295208692e-03 5.7481975433043011e-04
      -3.9461002131125598e-03 -3.7496488687918813e-03
      4.5452834574638392e-03 7.6701017346781216e-03
      -9.7303342165020856e-03 -1.3584108722832628e-02
      -8.0782425212835643e-03 1.1828325285054255e-02
      1.0747627602748992e-02 3.7876851618778196e-03
      1.3132043210741117e-02 9.8401116338602407e-03
      -1.2633154999039607e-02 6.6622433290778119e-03
      -1.1410644035523632e-02 -9.3776041734490393e-03
      -6.7556432576236286e-03 -8.8708155169158146e-03
      -4.1612234655330161e-03 1.2772387341386388e-02
      3.2399345878259505e-03 -7.9754637141442319e-03
      8.4596170473956664e-03 -1.2127066421851436e-02
      -8.5676780491811041e-03 3.4926929533540224e-03
      -1.2994317081569496e-02 1.2179467001892324e-02
      -5.4383416256465035e-03 1.3929086699893742e-02
      -1.0825198663604183e-02 5.0680939119976606e-03
      3.0694445518594455e-03 -1.0193120061318093e-02
      -3.9415519254602975e-03 -4.6161510795424722e-03
      1.5848042744899514e-03 -2.7714285560197265e-04
      3.8572102365041828e-03 -8.6524361663578592e-03
      4.1074391883972571e-03 1.2728388865740913e-02
      -6.2357543304228224e-03 4.4917944445342743e-03
      3.7793928437908448e-03 -8.3603935860515049e-03
      -1.1055186688634007e-02 -7.1030706273696384e-03
      -2.4339331036467185e-03 -3.7820592865526323e-03
      -3.3751184376356832e-03 -6.5817883515538076e-03
      -1.1337121774106087e-02 -8.1276015858253985e-03
      -1.2185760888501110e-02 4.9008709736157708e-04
      -4.9691551232366443e-03 -6.3832789474842933e-03
      1.2462683960480577e-02 -1.9210649185984199e-03
      -6.0427611145150526e-03 -4.8051106509568193e-03
      -1.1844630269807893e-02 1.3920550482173879e-02
      2.9442016970014362e-03 1.2451676645034439e-02
      7.4350398762478671e-04 5.0259691876247759e-03
      -1.0502532782323959e-02 4.3716777578567201e-03
      8.1370667945112989e-03 6.9344847364758502e-03
      -4.8700843864807478e-03 2.4294101995589487e-03
      1.4762700452845634e-03 9.3719869006608086e-03
      1.0308187264509258e-02 -5.9573470805476397e-03
      -6.0460389044443719e-03 1.0977265699569682e-02
      1.2690017122491385e-02 -1.8282487021171459e-03
      1.4228345628601410e-02 -1.2032400928329765e-03
      9.4206478744537966e-03 6.8815307522557059e-03
      7.0887590809593712e-03 -1.1529654800854742e-02
      -2.7293453955410580e-03 -1.1539566713926312e-02
      6.2678420741659217e-03 -3.0717718224860520e-03
      -1.4096876614508789e-02 3.3807028463416025e-03
      9.0420279475249051e-03 5.5593596526427235e-03
      6.5945611610168488e-03 -3.0907190251509191e-03
      -6.6396667649140997e-03 9.7534612306122859e-03
